digraph Tree {
node [shape=box, style="filled", color="black"] ;
0 [label="shell_weight_g <= 0.152\nentropy = 3.585\nsamples = 3176\nvalue = [1, 10, 43, 84, 201, 301, 441, 539, 483, 355, 199\n154, 98, 72, 51, 44, 27, 25, 21, 10, 4, 8, 1\n1, 1, 1, 1]", fillcolor="#fbfefb"] ;
1 [label="shell_weight_g <= 0.047\nentropy = 2.978\nsamples = 983\nvalue = [1, 10, 43, 84, 194, 242, 193, 93, 54, 26, 18, 13\n4, 3, 4, 0, 1, 0, 0, 0, 0, 0, 0, 0, 0, 0\n0]", fillcolor="#f8fdf3"] ;
0 -> 1 [labeldistance=2.5, labelangle=45, headlabel="True"] ;
2 [label="shell_weight_g <= 0.021\nentropy = 2.461\nsamples = 215\nvalue = [1, 10, 42, 66, 53, 27, 11, 4, 0, 1, 0, 0, 0\n0, 0, 0, 0, 0, 0, 0, 0, 0, 0, 0, 0, 0, 0]", fillcolor="#fcfdef"] ;
1 -> 2 ;
3 [label="viscera_weight_g <= 0.012\nentropy = 1.887\nsamples = 67\nvalue = [1, 10, 31, 20, 3, 2, 0, 0, 0, 0, 0, 0, 0, 0\n0, 0, 0, 0, 0, 0, 0, 0, 0, 0, 0, 0, 0]", fillcolor="#f9f3d1"] ;
2 -> 3 ;
4 [label="shucked_weight_g <= 0.005\nentropy = 1.746\nsamples = 46\nvalue = [1, 10, 24, 9, 0, 2, 0, 0, 0, 0, 0, 0, 0, 0\n0, 0, 0, 0, 0, 0, 0, 0, 0, 0, 0, 0, 0]", fillcolor="#f5ebb2"] ;
3 -> 4 ;
5 [label="diam_mm <= 0.073\nentropy = 0.918\nsamples = 3\nvalue = [1, 2, 0, 0, 0, 0, 0, 0, 0, 0, 0, 0, 0, 0\n0, 0, 0, 0, 0, 0, 0, 0, 0, 0, 0, 0, 0]", fillcolor="#f2d29c"] ;
4 -> 5 ;
6 [label="entropy = 0.0\nsamples = 1\nvalue = [1, 0, 0, 0, 0, 0, 0, 0, 0, 0, 0, 0, 0, 0\n0, 0, 0, 0, 0, 0, 0, 0, 0, 0, 0, 0, 0]", fillcolor="#e58139"] ;
5 -> 6 ;
7 [label="entropy = 0.0\nsamples = 2\nvalue = [0, 2, 0, 0, 0, 0, 0, 0, 0, 0, 0, 0, 0, 0\n0, 0, 0, 0, 0, 0, 0, 0, 0, 0, 0, 0, 0]", fillcolor="#e5a639"] ;
5 -> 7 ;
8 [label="shell_weight_g <= 0.015\nentropy = 1.599\nsamples = 43\nvalue = [0, 8, 24, 9, 0, 2, 0, 0, 0, 0, 0, 0, 0, 0\n0, 0, 0, 0, 0, 0, 0, 0, 0, 0, 0, 0, 0]", fillcolor="#f4e8a8"] ;
4 -> 8 ;
9 [label="shell_weight_g <= 0.007\nentropy = 1.403\nsamples = 38\nvalue = [0, 8, 22, 8, 0, 0, 0, 0, 0, 0, 0, 0, 0, 0\n0, 0, 0, 0, 0, 0, 0, 0, 0, 0, 0, 0, 0]", fillcolor="#f3e7a3"] ;
8 -> 9 ;
10 [label="is_male <= 0.5\nentropy = 0.469\nsamples = 10\nvalue = [0, 1, 9, 0, 0, 0, 0, 0, 0, 0, 0, 0, 0, 0\n0, 0, 0, 0, 0, 0, 0, 0, 0, 0, 0, 0, 0]", fillcolor="#e8d14f"] ;
9 -> 10 ;
11 [label="entropy = 0.0\nsamples = 8\nvalue = [0, 0, 8, 0, 0, 0, 0, 0, 0, 0, 0, 0, 0, 0\n0, 0, 0, 0, 0, 0, 0, 0, 0, 0, 0, 0, 0]", fillcolor="#e5cb39"] ;
10 -> 11 ;
12 [label="length_mm <= 0.165\nentropy = 1.0\nsamples = 2\nvalue = [0, 1, 1, 0, 0, 0, 0, 0, 0, 0, 0, 0, 0, 0\n0, 0, 0, 0, 0, 0, 0, 0, 0, 0, 0, 0, 0]", fillcolor="#ffffff"] ;
10 -> 12 ;
13 [label="entropy = 0.0\nsamples = 1\nvalue = [0, 1, 0, 0, 0, 0, 0, 0, 0, 0, 0, 0, 0, 0\n0, 0, 0, 0, 0, 0, 0, 0, 0, 0, 0, 0, 0]", fillcolor="#e5a639"] ;
12 -> 13 ;
14 [label="entropy = 0.0\nsamples = 1\nvalue = [0, 0, 1, 0, 0, 0, 0, 0, 0, 0, 0, 0, 0, 0\n0, 0, 0, 0, 0, 0, 0, 0, 0, 0, 0, 0, 0]", fillcolor="#e5cb39"] ;
12 -> 14 ;
15 [label="height_mm <= 0.032\nentropy = 1.53\nsamples = 28\nvalue = [0, 7, 13, 8, 0, 0, 0, 0, 0, 0, 0, 0, 0, 0\n0, 0, 0, 0, 0, 0, 0, 0, 0, 0, 0, 0, 0]", fillcolor="#f8f2ce"] ;
9 -> 15 ;
16 [label="shell_weight_g <= 0.01\nentropy = 0.918\nsamples = 3\nvalue = [0, 1, 0, 2, 0, 0, 0, 0, 0, 0, 0, 0, 0, 0\n0, 0, 0, 0, 0, 0, 0, 0, 0, 0, 0, 0, 0]", fillcolor="#ebf29c"] ;
15 -> 16 ;
17 [label="entropy = 0.0\nsamples = 2\nvalue = [0, 0, 0, 2, 0, 0, 0, 0, 0, 0, 0, 0, 0, 0\n0, 0, 0, 0, 0, 0, 0, 0, 0, 0, 0, 0, 0]", fillcolor="#d7e539"] ;
16 -> 17 ;
18 [label="entropy = 0.0\nsamples = 1\nvalue = [0, 1, 0, 0, 0, 0, 0, 0, 0, 0, 0, 0, 0, 0\n0, 0, 0, 0, 0, 0, 0, 0, 0, 0, 0, 0, 0]", fillcolor="#e5a639"] ;
16 -> 18 ;
19 [label="height_mm <= 0.043\nentropy = 1.479\nsamples = 25\nvalue = [0, 6, 13, 6, 0, 0, 0, 0, 0, 0, 0, 0, 0, 0\n0, 0, 0, 0, 0, 0, 0, 0, 0, 0, 0, 0, 0]", fillcolor="#f5ecb6"] ;
15 -> 19 ;
20 [label="shucked_weight_g <= 0.01\nentropy = 0.863\nsamples = 7\nvalue = [0, 0, 5, 2, 0, 0, 0, 0, 0, 0, 0, 0, 0, 0\n0, 0, 0, 0, 0, 0, 0, 0, 0, 0, 0, 0, 0]", fillcolor="#efe088"] ;
19 -> 20 ;
21 [label="entropy = 0.0\nsamples = 3\nvalue = [0, 0, 3, 0, 0, 0, 0, 0, 0, 0, 0, 0, 0, 0\n0, 0, 0, 0, 0, 0, 0, 0, 0, 0, 0, 0, 0]", fillcolor="#e5cb39"] ;
20 -> 21 ;
22 [label="length_mm <= 0.188\nentropy = 1.0\nsamples = 4\nvalue = [0, 0, 2, 2, 0, 0, 0, 0, 0, 0, 0, 0, 0, 0\n0, 0, 0, 0, 0, 0, 0, 0, 0, 0, 0, 0, 0]", fillcolor="#ffffff"] ;
20 -> 22 ;
23 [label="entropy = 0.0\nsamples = 2\nvalue = [0, 0, 0, 2, 0, 0, 0, 0, 0, 0, 0, 0, 0, 0\n0, 0, 0, 0, 0, 0, 0, 0, 0, 0, 0, 0, 0]", fillcolor="#d7e539"] ;
22 -> 23 ;
24 [label="entropy = 0.0\nsamples = 2\nvalue = [0, 0, 2, 0, 0, 0, 0, 0, 0, 0, 0, 0, 0, 0\n0, 0, 0, 0, 0, 0, 0, 0, 0, 0, 0, 0, 0]", fillcolor="#e5cb39"] ;
22 -> 24 ;
25 [label="whole_weight_g <= 0.029\nentropy = 1.53\nsamples = 18\nvalue = [0, 6, 8, 4, 0, 0, 0, 0, 0, 0, 0, 0, 0, 0\n0, 0, 0, 0, 0, 0, 0, 0, 0, 0, 0, 0, 0]", fillcolor="#fbf6de"] ;
19 -> 25 ;
26 [label="entropy = 0.0\nsamples = 2\nvalue = [0, 2, 0, 0, 0, 0, 0, 0, 0, 0, 0, 0, 0, 0\n0, 0, 0, 0, 0, 0, 0, 0, 0, 0, 0, 0, 0]", fillcolor="#e5a639"] ;
25 -> 26 ;
27 [label="diam_mm <= 0.142\nentropy = 1.5\nsamples = 16\nvalue = [0, 4, 8, 4, 0, 0, 0, 0, 0, 0, 0, 0, 0, 0\n0, 0, 0, 0, 0, 0, 0, 0, 0, 0, 0, 0, 0]", fillcolor="#f6eebd"] ;
25 -> 27 ;
28 [label="height_mm <= 0.087\nentropy = 0.811\nsamples = 4\nvalue = [0, 0, 1, 3, 0, 0, 0, 0, 0, 0, 0, 0, 0, 0\n0, 0, 0, 0, 0, 0, 0, 0, 0, 0, 0, 0, 0]", fillcolor="#e4ee7b"] ;
27 -> 28 ;
29 [label="entropy = 0.0\nsamples = 3\nvalue = [0, 0, 0, 3, 0, 0, 0, 0, 0, 0, 0, 0, 0, 0\n0, 0, 0, 0, 0, 0, 0, 0, 0, 0, 0, 0, 0]", fillcolor="#d7e539"] ;
28 -> 29 ;
30 [label="entropy = 0.0\nsamples = 1\nvalue = [0, 0, 1, 0, 0, 0, 0, 0, 0, 0, 0, 0, 0, 0\n0, 0, 0, 0, 0, 0, 0, 0, 0, 0, 0, 0, 0]", fillcolor="#e5cb39"] ;
28 -> 30 ;
31 [label="diam_mm <= 0.165\nentropy = 1.281\nsamples = 12\nvalue = [0, 4, 7, 1, 0, 0, 0, 0, 0, 0, 0, 0, 0, 0\n0, 0, 0, 0, 0, 0, 0, 0, 0, 0, 0, 0, 0]", fillcolor="#f5ecb5"] ;
27 -> 31 ;
32 [label="shucked_weight_g <= 0.014\nentropy = 0.946\nsamples = 11\nvalue = [0, 4, 7, 0, 0, 0, 0, 0, 0, 0, 0, 0, 0, 0\n0, 0, 0, 0, 0, 0, 0, 0, 0, 0, 0, 0, 0]", fillcolor="#f4e9aa"] ;
31 -> 32 ;
33 [label="entropy = 0.0\nsamples = 4\nvalue = [0, 0, 4, 0, 0, 0, 0, 0, 0, 0, 0, 0, 0, 0\n0, 0, 0, 0, 0, 0, 0, 0, 0, 0, 0, 0, 0]", fillcolor="#e5cb39"] ;
32 -> 33 ;
34 [label="shucked_weight_g <= 0.019\nentropy = 0.985\nsamples = 7\nvalue = [0, 4, 3, 0, 0, 0, 0, 0, 0, 0, 0, 0, 0, 0\n0, 0, 0, 0, 0, 0, 0, 0, 0, 0, 0, 0, 0]", fillcolor="#f8e9ce"] ;
32 -> 34 ;
35 [label="entropy = 0.0\nsamples = 3\nvalue = [0, 3, 0, 0, 0, 0, 0, 0, 0, 0, 0, 0, 0, 0\n0, 0, 0, 0, 0, 0, 0, 0, 0, 0, 0, 0, 0]", fillcolor="#e5a639"] ;
34 -> 35 ;
36 [label="height_mm <= 0.048\nentropy = 0.811\nsamples = 4\nvalue = [0, 1, 3, 0, 0, 0, 0, 0, 0, 0, 0, 0, 0, 0\n0, 0, 0, 0, 0, 0, 0, 0, 0, 0, 0, 0, 0]", fillcolor="#eedc7b"] ;
34 -> 36 ;
37 [label="entropy = 0.0\nsamples = 1\nvalue = [0, 1, 0, 0, 0, 0, 0, 0, 0, 0, 0, 0, 0, 0\n0, 0, 0, 0, 0, 0, 0, 0, 0, 0, 0, 0, 0]", fillcolor="#e5a639"] ;
36 -> 37 ;
38 [label="entropy = 0.0\nsamples = 3\nvalue = [0, 0, 3, 0, 0, 0, 0, 0, 0, 0, 0, 0, 0, 0\n0, 0, 0, 0, 0, 0, 0, 0, 0, 0, 0, 0, 0]", fillcolor="#e5cb39"] ;
36 -> 38 ;
39 [label="entropy = 0.0\nsamples = 1\nvalue = [0, 0, 0, 1, 0, 0, 0, 0, 0, 0, 0, 0, 0, 0\n0, 0, 0, 0, 0, 0, 0, 0, 0, 0, 0, 0, 0]", fillcolor="#d7e539"] ;
31 -> 39 ;
40 [label="is_male <= 0.5\nentropy = 1.522\nsamples = 5\nvalue = [0, 0, 2, 1, 0, 2, 0, 0, 0, 0, 0, 0, 0, 0\n0, 0, 0, 0, 0, 0, 0, 0, 0, 0, 0, 0, 0]", fillcolor="#ffffff"] ;
8 -> 40 ;
41 [label="shucked_weight_g <= 0.027\nentropy = 0.918\nsamples = 3\nvalue = [0, 0, 2, 1, 0, 0, 0, 0, 0, 0, 0, 0, 0, 0\n0, 0, 0, 0, 0, 0, 0, 0, 0, 0, 0, 0, 0]", fillcolor="#f2e59c"] ;
40 -> 41 ;
42 [label="entropy = 0.0\nsamples = 1\nvalue = [0, 0, 0, 1, 0, 0, 0, 0, 0, 0, 0, 0, 0, 0\n0, 0, 0, 0, 0, 0, 0, 0, 0, 0, 0, 0, 0]", fillcolor="#d7e539"] ;
41 -> 42 ;
43 [label="entropy = 0.0\nsamples = 2\nvalue = [0, 0, 2, 0, 0, 0, 0, 0, 0, 0, 0, 0, 0, 0\n0, 0, 0, 0, 0, 0, 0, 0, 0, 0, 0, 0, 0]", fillcolor="#e5cb39"] ;
41 -> 43 ;
44 [label="entropy = 0.0\nsamples = 2\nvalue = [0, 0, 0, 0, 0, 2, 0, 0, 0, 0, 0, 0, 0, 0\n0, 0, 0, 0, 0, 0, 0, 0, 0, 0, 0, 0, 0]", fillcolor="#8ce539"] ;
40 -> 44 ;
45 [label="diam_mm <= 0.178\nentropy = 1.418\nsamples = 21\nvalue = [0, 0, 7, 11, 3, 0, 0, 0, 0, 0, 0, 0, 0, 0\n0, 0, 0, 0, 0, 0, 0, 0, 0, 0, 0, 0, 0]", fillcolor="#f4f8c6"] ;
3 -> 45 ;
46 [label="viscera_weight_g <= 0.014\nentropy = 1.149\nsamples = 14\nvalue = [0, 0, 2, 10, 2, 0, 0, 0, 0, 0, 0, 0, 0, 0\n0, 0, 0, 0, 0, 0, 0, 0, 0, 0, 0, 0, 0]", fillcolor="#e4ee7b"] ;
45 -> 46 ;
47 [label="shell_weight_g <= 0.018\nentropy = 1.557\nsamples = 7\nvalue = [0, 0, 2, 3, 2, 0, 0, 0, 0, 0, 0, 0, 0, 0\n0, 0, 0, 0, 0, 0, 0, 0, 0, 0, 0, 0, 0]", fillcolor="#f7fad7"] ;
46 -> 47 ;
48 [label="whole_weight_g <= 0.057\nentropy = 1.522\nsamples = 5\nvalue = [0, 0, 2, 1, 2, 0, 0, 0, 0, 0, 0, 0, 0, 0\n0, 0, 0, 0, 0, 0, 0, 0, 0, 0, 0, 0, 0]", fillcolor="#ffffff"] ;
47 -> 48 ;
49 [label="shell_weight_g <= 0.015\nentropy = 0.918\nsamples = 3\nvalue = [0, 0, 2, 0, 1, 0, 0, 0, 0, 0, 0, 0, 0, 0\n0, 0, 0, 0, 0, 0, 0, 0, 0, 0, 0, 0, 0]", fillcolor="#f2e59c"] ;
48 -> 49 ;
50 [label="entropy = 0.0\nsamples = 1\nvalue = [0, 0, 0, 0, 1, 0, 0, 0, 0, 0, 0, 0, 0, 0\n0, 0, 0, 0, 0, 0, 0, 0, 0, 0, 0, 0, 0]", fillcolor="#b1e539"] ;
49 -> 50 ;
51 [label="entropy = 0.0\nsamples = 2\nvalue = [0, 0, 2, 0, 0, 0, 0, 0, 0, 0, 0, 0, 0, 0\n0, 0, 0, 0, 0, 0, 0, 0, 0, 0, 0, 0, 0]", fillcolor="#e5cb39"] ;
49 -> 51 ;
52 [label="length_mm <= 0.233\nentropy = 1.0\nsamples = 2\nvalue = [0, 0, 0, 1, 1, 0, 0, 0, 0, 0, 0, 0, 0, 0\n0, 0, 0, 0, 0, 0, 0, 0, 0, 0, 0, 0, 0]", fillcolor="#ffffff"] ;
48 -> 52 ;
53 [label="entropy = 0.0\nsamples = 1\nvalue = [0, 0, 0, 1, 0, 0, 0, 0, 0, 0, 0, 0, 0, 0\n0, 0, 0, 0, 0, 0, 0, 0, 0, 0, 0, 0, 0]", fillcolor="#d7e539"] ;
52 -> 53 ;
54 [label="entropy = 0.0\nsamples = 1\nvalue = [0, 0, 0, 0, 1, 0, 0, 0, 0, 0, 0, 0, 0, 0\n0, 0, 0, 0, 0, 0, 0, 0, 0, 0, 0, 0, 0]", fillcolor="#b1e539"] ;
52 -> 54 ;
55 [label="entropy = 0.0\nsamples = 2\nvalue = [0, 0, 0, 2, 0, 0, 0, 0, 0, 0, 0, 0, 0, 0\n0, 0, 0, 0, 0, 0, 0, 0, 0, 0, 0, 0, 0]", fillcolor="#d7e539"] ;
47 -> 55 ;
56 [label="entropy = 0.0\nsamples = 7\nvalue = [0, 0, 0, 7, 0, 0, 0, 0, 0, 0, 0, 0, 0, 0\n0, 0, 0, 0, 0, 0, 0, 0, 0, 0, 0, 0, 0]", fillcolor="#d7e539"] ;
46 -> 56 ;
57 [label="length_mm <= 0.237\nentropy = 1.149\nsamples = 7\nvalue = [0, 0, 5, 1, 1, 0, 0, 0, 0, 0, 0, 0, 0, 0\n0, 0, 0, 0, 0, 0, 0, 0, 0, 0, 0, 0, 0]", fillcolor="#eedc7b"] ;
45 -> 57 ;
58 [label="height_mm <= 0.055\nentropy = 1.0\nsamples = 2\nvalue = [0, 0, 0, 1, 1, 0, 0, 0, 0, 0, 0, 0, 0, 0\n0, 0, 0, 0, 0, 0, 0, 0, 0, 0, 0, 0, 0]", fillcolor="#ffffff"] ;
57 -> 58 ;
59 [label="entropy = 0.0\nsamples = 1\nvalue = [0, 0, 0, 1, 0, 0, 0, 0, 0, 0, 0, 0, 0, 0\n0, 0, 0, 0, 0, 0, 0, 0, 0, 0, 0, 0, 0]", fillcolor="#d7e539"] ;
58 -> 59 ;
60 [label="entropy = 0.0\nsamples = 1\nvalue = [0, 0, 0, 0, 1, 0, 0, 0, 0, 0, 0, 0, 0, 0\n0, 0, 0, 0, 0, 0, 0, 0, 0, 0, 0, 0, 0]", fillcolor="#b1e539"] ;
58 -> 60 ;
61 [label="entropy = 0.0\nsamples = 5\nvalue = [0, 0, 5, 0, 0, 0, 0, 0, 0, 0, 0, 0, 0, 0\n0, 0, 0, 0, 0, 0, 0, 0, 0, 0, 0, 0, 0]", fillcolor="#e5cb39"] ;
57 -> 61 ;
62 [label="viscera_weight_g <= 0.032\nentropy = 2.233\nsamples = 148\nvalue = [0, 0, 11, 46, 50, 25, 11, 4, 0, 1, 0, 0, 0\n0, 0, 0, 0, 0, 0, 0, 0, 0, 0, 0, 0, 0, 0]", fillcolor="#fcfef7"] ;
2 -> 62 ;
63 [label="viscera_weight_g <= 0.024\nentropy = 2.087\nsamples = 112\nvalue = [0, 0, 10, 38, 38, 15, 11, 0, 0, 0, 0, 0, 0\n0, 0, 0, 0, 0, 0, 0, 0, 0, 0, 0, 0, 0, 0]", fillcolor="#ffffff"] ;
62 -> 63 ;
64 [label="shell_weight_g <= 0.031\nentropy = 1.929\nsamples = 63\nvalue = [0, 0, 5, 31, 15, 7, 5, 0, 0, 0, 0, 0, 0, 0\n0, 0, 0, 0, 0, 0, 0, 0, 0, 0, 0, 0, 0]", fillcolor="#f2f6bd"] ;
63 -> 64 ;
65 [label="whole_weight_g <= 0.083\nentropy = 1.86\nsamples = 39\nvalue = [0, 0, 4, 17, 13, 4, 1, 0, 0, 0, 0, 0, 0, 0\n0, 0, 0, 0, 0, 0, 0, 0, 0, 0, 0, 0, 0]", fillcolor="#f9fbe1"] ;
64 -> 65 ;
66 [label="shell_weight_g <= 0.026\nentropy = 1.325\nsamples = 12\nvalue = [0, 0, 0, 6, 5, 0, 1, 0, 0, 0, 0, 0, 0, 0\n0, 0, 0, 0, 0, 0, 0, 0, 0, 0, 0, 0, 0]", fillcolor="#f9fbe3"] ;
65 -> 66 ;
67 [label="viscera_weight_g <= 0.013\nentropy = 0.918\nsamples = 9\nvalue = [0, 0, 0, 6, 3, 0, 0, 0, 0, 0, 0, 0, 0, 0\n0, 0, 0, 0, 0, 0, 0, 0, 0, 0, 0, 0, 0]", fillcolor="#ebf29c"] ;
66 -> 67 ;
68 [label="entropy = 0.0\nsamples = 1\nvalue = [0, 0, 0, 0, 1, 0, 0, 0, 0, 0, 0, 0, 0, 0\n0, 0, 0, 0, 0, 0, 0, 0, 0, 0, 0, 0, 0]", fillcolor="#b1e539"] ;
67 -> 68 ;
69 [label="whole_weight_g <= 0.063\nentropy = 0.811\nsamples = 8\nvalue = [0, 0, 0, 6, 2, 0, 0, 0, 0, 0, 0, 0, 0, 0\n0, 0, 0, 0, 0, 0, 0, 0, 0, 0, 0, 0, 0]", fillcolor="#e4ee7b"] ;
67 -> 69 ;
70 [label="entropy = 0.0\nsamples = 1\nvalue = [0, 0, 0, 0, 1, 0, 0, 0, 0, 0, 0, 0, 0, 0\n0, 0, 0, 0, 0, 0, 0, 0, 0, 0, 0, 0, 0]", fillcolor="#b1e539"] ;
69 -> 70 ;
71 [label="viscera_weight_g <= 0.018\nentropy = 0.592\nsamples = 7\nvalue = [0, 0, 0, 6, 1, 0, 0, 0, 0, 0, 0, 0, 0, 0\n0, 0, 0, 0, 0, 0, 0, 0, 0, 0, 0, 0, 0]", fillcolor="#dee95a"] ;
69 -> 71 ;
72 [label="entropy = 0.0\nsamples = 5\nvalue = [0, 0, 0, 5, 0, 0, 0, 0, 0, 0, 0, 0, 0, 0\n0, 0, 0, 0, 0, 0, 0, 0, 0, 0, 0, 0, 0]", fillcolor="#d7e539"] ;
71 -> 72 ;
73 [label="whole_weight_g <= 0.078\nentropy = 1.0\nsamples = 2\nvalue = [0, 0, 0, 1, 1, 0, 0, 0, 0, 0, 0, 0, 0, 0\n0, 0, 0, 0, 0, 0, 0, 0, 0, 0, 0, 0, 0]", fillcolor="#ffffff"] ;
71 -> 73 ;
74 [label="entropy = 0.0\nsamples = 1\nvalue = [0, 0, 0, 0, 1, 0, 0, 0, 0, 0, 0, 0, 0, 0\n0, 0, 0, 0, 0, 0, 0, 0, 0, 0, 0, 0, 0]", fillcolor="#b1e539"] ;
73 -> 74 ;
75 [label="entropy = 0.0\nsamples = 1\nvalue = [0, 0, 0, 1, 0, 0, 0, 0, 0, 0, 0, 0, 0, 0\n0, 0, 0, 0, 0, 0, 0, 0, 0, 0, 0, 0, 0]", fillcolor="#d7e539"] ;
73 -> 75 ;
76 [label="shucked_weight_g <= 0.031\nentropy = 0.918\nsamples = 3\nvalue = [0, 0, 0, 0, 2, 0, 1, 0, 0, 0, 0, 0, 0, 0\n0, 0, 0, 0, 0, 0, 0, 0, 0, 0, 0, 0, 0]", fillcolor="#d8f29c"] ;
66 -> 76 ;
77 [label="entropy = 0.0\nsamples = 2\nvalue = [0, 0, 0, 0, 2, 0, 0, 0, 0, 0, 0, 0, 0, 0\n0, 0, 0, 0, 0, 0, 0, 0, 0, 0, 0, 0, 0]", fillcolor="#b1e539"] ;
76 -> 77 ;
78 [label="entropy = 0.0\nsamples = 1\nvalue = [0, 0, 0, 0, 0, 0, 1, 0, 0, 0, 0, 0, 0, 0\n0, 0, 0, 0, 0, 0, 0, 0, 0, 0, 0, 0, 0]", fillcolor="#64e539"] ;
76 -> 78 ;
79 [label="whole_weight_g <= 0.088\nentropy = 1.864\nsamples = 27\nvalue = [0, 0, 4, 11, 8, 4, 0, 0, 0, 0, 0, 0, 0, 0\n0, 0, 0, 0, 0, 0, 0, 0, 0, 0, 0, 0, 0]", fillcolor="#f9fbe0"] ;
65 -> 79 ;
80 [label="length_mm <= 0.26\nentropy = 1.459\nsamples = 6\nvalue = [0, 0, 2, 1, 0, 3, 0, 0, 0, 0, 0, 0, 0, 0\n0, 0, 0, 0, 0, 0, 0, 0, 0, 0, 0, 0, 0]", fillcolor="#e2f8ce"] ;
79 -> 80 ;
81 [label="length_mm <= 0.25\nentropy = 1.0\nsamples = 2\nvalue = [0, 0, 1, 1, 0, 0, 0, 0, 0, 0, 0, 0, 0, 0\n0, 0, 0, 0, 0, 0, 0, 0, 0, 0, 0, 0, 0]", fillcolor="#ffffff"] ;
80 -> 81 ;
82 [label="entropy = 0.0\nsamples = 1\nvalue = [0, 0, 1, 0, 0, 0, 0, 0, 0, 0, 0, 0, 0, 0\n0, 0, 0, 0, 0, 0, 0, 0, 0, 0, 0, 0, 0]", fillcolor="#e5cb39"] ;
81 -> 82 ;
83 [label="entropy = 0.0\nsamples = 1\nvalue = [0, 0, 0, 1, 0, 0, 0, 0, 0, 0, 0, 0, 0, 0\n0, 0, 0, 0, 0, 0, 0, 0, 0, 0, 0, 0, 0]", fillcolor="#d7e539"] ;
81 -> 83 ;
84 [label="viscera_weight_g <= 0.02\nentropy = 0.811\nsamples = 4\nvalue = [0, 0, 1, 0, 0, 3, 0, 0, 0, 0, 0, 0, 0, 0\n0, 0, 0, 0, 0, 0, 0, 0, 0, 0, 0, 0, 0]", fillcolor="#b2ee7b"] ;
80 -> 84 ;
85 [label="entropy = 0.0\nsamples = 3\nvalue = [0, 0, 0, 0, 0, 3, 0, 0, 0, 0, 0, 0, 0, 0\n0, 0, 0, 0, 0, 0, 0, 0, 0, 0, 0, 0, 0]", fillcolor="#8ce539"] ;
84 -> 85 ;
86 [label="entropy = 0.0\nsamples = 1\nvalue = [0, 0, 1, 0, 0, 0, 0, 0, 0, 0, 0, 0, 0, 0\n0, 0, 0, 0, 0, 0, 0, 0, 0, 0, 0, 0, 0]", fillcolor="#e5cb39"] ;
84 -> 86 ;
87 [label="length_mm <= 0.282\nentropy = 1.572\nsamples = 21\nvalue = [0, 0, 2, 10, 8, 1, 0, 0, 0, 0, 0, 0, 0, 0\n0, 0, 0, 0, 0, 0, 0, 0, 0, 0, 0, 0, 0]", fillcolor="#f9fbe1"] ;
79 -> 87 ;
88 [label="height_mm <= 0.067\nentropy = 1.592\nsamples = 16\nvalue = [0, 0, 2, 9, 4, 1, 0, 0, 0, 0, 0, 0, 0, 0\n0, 0, 0, 0, 0, 0, 0, 0, 0, 0, 0, 0, 0]", fillcolor="#eef4ac"] ;
87 -> 88 ;
89 [label="height_mm <= 0.057\nentropy = 1.061\nsamples = 8\nvalue = [0, 0, 1, 6, 0, 1, 0, 0, 0, 0, 0, 0, 0, 0\n0, 0, 0, 0, 0, 0, 0, 0, 0, 0, 0, 0, 0]", fillcolor="#e2ec72"] ;
88 -> 89 ;
90 [label="entropy = 0.0\nsamples = 1\nvalue = [0, 0, 1, 0, 0, 0, 0, 0, 0, 0, 0, 0, 0, 0\n0, 0, 0, 0, 0, 0, 0, 0, 0, 0, 0, 0, 0]", fillcolor="#e5cb39"] ;
89 -> 90 ;
91 [label="shucked_weight_g <= 0.046\nentropy = 0.592\nsamples = 7\nvalue = [0, 0, 0, 6, 0, 1, 0, 0, 0, 0, 0, 0, 0, 0\n0, 0, 0, 0, 0, 0, 0, 0, 0, 0, 0, 0, 0]", fillcolor="#dee95a"] ;
89 -> 91 ;
92 [label="entropy = 0.0\nsamples = 5\nvalue = [0, 0, 0, 5, 0, 0, 0, 0, 0, 0, 0, 0, 0, 0\n0, 0, 0, 0, 0, 0, 0, 0, 0, 0, 0, 0, 0]", fillcolor="#d7e539"] ;
91 -> 92 ;
93 [label="shell_weight_g <= 0.029\nentropy = 1.0\nsamples = 2\nvalue = [0, 0, 0, 1, 0, 1, 0, 0, 0, 0, 0, 0, 0, 0\n0, 0, 0, 0, 0, 0, 0, 0, 0, 0, 0, 0, 0]", fillcolor="#ffffff"] ;
91 -> 93 ;
94 [label="entropy = 0.0\nsamples = 1\nvalue = [0, 0, 0, 1, 0, 0, 0, 0, 0, 0, 0, 0, 0, 0\n0, 0, 0, 0, 0, 0, 0, 0, 0, 0, 0, 0, 0]", fillcolor="#d7e539"] ;
93 -> 94 ;
95 [label="entropy = 0.0\nsamples = 1\nvalue = [0, 0, 0, 0, 0, 1, 0, 0, 0, 0, 0, 0, 0, 0\n0, 0, 0, 0, 0, 0, 0, 0, 0, 0, 0, 0, 0]", fillcolor="#8ce539"] ;
93 -> 95 ;
96 [label="viscera_weight_g <= 0.021\nentropy = 1.406\nsamples = 8\nvalue = [0, 0, 1, 3, 4, 0, 0, 0, 0, 0, 0, 0, 0, 0\n0, 0, 0, 0, 0, 0, 0, 0, 0, 0, 0, 0, 0]", fillcolor="#effad7"] ;
88 -> 96 ;
97 [label="shell_weight_g <= 0.03\nentropy = 0.811\nsamples = 4\nvalue = [0, 0, 1, 0, 3, 0, 0, 0, 0, 0, 0, 0, 0, 0\n0, 0, 0, 0, 0, 0, 0, 0, 0, 0, 0, 0, 0]", fillcolor="#cbee7b"] ;
96 -> 97 ;
98 [label="entropy = 0.0\nsamples = 3\nvalue = [0, 0, 0, 0, 3, 0, 0, 0, 0, 0, 0, 0, 0, 0\n0, 0, 0, 0, 0, 0, 0, 0, 0, 0, 0, 0, 0]", fillcolor="#b1e539"] ;
97 -> 98 ;
99 [label="entropy = 0.0\nsamples = 1\nvalue = [0, 0, 1, 0, 0, 0, 0, 0, 0, 0, 0, 0, 0, 0\n0, 0, 0, 0, 0, 0, 0, 0, 0, 0, 0, 0, 0]", fillcolor="#e5cb39"] ;
97 -> 99 ;
100 [label="height_mm <= 0.075\nentropy = 0.811\nsamples = 4\nvalue = [0, 0, 0, 3, 1, 0, 0, 0, 0, 0, 0, 0, 0, 0\n0, 0, 0, 0, 0, 0, 0, 0, 0, 0, 0, 0, 0]", fillcolor="#e4ee7b"] ;
96 -> 100 ;
101 [label="entropy = 0.0\nsamples = 1\nvalue = [0, 0, 0, 0, 1, 0, 0, 0, 0, 0, 0, 0, 0, 0\n0, 0, 0, 0, 0, 0, 0, 0, 0, 0, 0, 0, 0]", fillcolor="#b1e539"] ;
100 -> 101 ;
102 [label="entropy = 0.0\nsamples = 3\nvalue = [0, 0, 0, 3, 0, 0, 0, 0, 0, 0, 0, 0, 0, 0\n0, 0, 0, 0, 0, 0, 0, 0, 0, 0, 0, 0, 0]", fillcolor="#d7e539"] ;
100 -> 102 ;
103 [label="diam_mm <= 0.218\nentropy = 0.722\nsamples = 5\nvalue = [0, 0, 0, 1, 4, 0, 0, 0, 0, 0, 0, 0, 0, 0\n0, 0, 0, 0, 0, 0, 0, 0, 0, 0, 0, 0, 0]", fillcolor="#c4ec6a"] ;
87 -> 103 ;
104 [label="entropy = 0.0\nsamples = 4\nvalue = [0, 0, 0, 0, 4, 0, 0, 0, 0, 0, 0, 0, 0, 0\n0, 0, 0, 0, 0, 0, 0, 0, 0, 0, 0, 0, 0]", fillcolor="#b1e539"] ;
103 -> 104 ;
105 [label="entropy = 0.0\nsamples = 1\nvalue = [0, 0, 0, 1, 0, 0, 0, 0, 0, 0, 0, 0, 0, 0\n0, 0, 0, 0, 0, 0, 0, 0, 0, 0, 0, 0, 0]", fillcolor="#d7e539"] ;
103 -> 105 ;
106 [label="shell_weight_g <= 0.04\nentropy = 1.749\nsamples = 24\nvalue = [0, 0, 1, 14, 2, 3, 4, 0, 0, 0, 0, 0, 0, 0\n0, 0, 0, 0, 0, 0, 0, 0, 0, 0, 0, 0, 0]", fillcolor="#ebf29c"] ;
64 -> 106 ;
107 [label="shucked_weight_g <= 0.04\nentropy = 1.247\nsamples = 21\nvalue = [0, 0, 0, 14, 0, 3, 4, 0, 0, 0, 0, 0, 0, 0\n0, 0, 0, 0, 0, 0, 0, 0, 0, 0, 0, 0, 0]", fillcolor="#e7f08b"] ;
106 -> 107 ;
108 [label="whole_weight_g <= 0.096\nentropy = 0.971\nsamples = 5\nvalue = [0, 0, 0, 2, 0, 0, 3, 0, 0, 0, 0, 0, 0, 0\n0, 0, 0, 0, 0, 0, 0, 0, 0, 0, 0, 0, 0]", fillcolor="#cbf6bd"] ;
107 -> 108 ;
109 [label="entropy = 0.0\nsamples = 2\nvalue = [0, 0, 0, 2, 0, 0, 0, 0, 0, 0, 0, 0, 0, 0\n0, 0, 0, 0, 0, 0, 0, 0, 0, 0, 0, 0, 0]", fillcolor="#d7e539"] ;
108 -> 109 ;
110 [label="entropy = 0.0\nsamples = 3\nvalue = [0, 0, 0, 0, 0, 0, 3, 0, 0, 0, 0, 0, 0, 0\n0, 0, 0, 0, 0, 0, 0, 0, 0, 0, 0, 0, 0]", fillcolor="#64e539"] ;
108 -> 110 ;
111 [label="viscera_weight_g <= 0.019\nentropy = 1.014\nsamples = 16\nvalue = [0, 0, 0, 12, 0, 3, 1, 0, 0, 0, 0, 0, 0, 0\n0, 0, 0, 0, 0, 0, 0, 0, 0, 0, 0, 0, 0]", fillcolor="#e3ed76"] ;
107 -> 111 ;
112 [label="length_mm <= 0.278\nentropy = 1.449\nsamples = 7\nvalue = [0, 0, 0, 3, 0, 3, 1, 0, 0, 0, 0, 0, 0, 0\n0, 0, 0, 0, 0, 0, 0, 0, 0, 0, 0, 0, 0]", fillcolor="#ffffff"] ;
111 -> 112 ;
113 [label="shell_weight_g <= 0.035\nentropy = 0.918\nsamples = 3\nvalue = [0, 0, 0, 0, 0, 2, 1, 0, 0, 0, 0, 0, 0, 0\n0, 0, 0, 0, 0, 0, 0, 0, 0, 0, 0, 0, 0]", fillcolor="#c6f29c"] ;
112 -> 113 ;
114 [label="entropy = 0.0\nsamples = 1\nvalue = [0, 0, 0, 0, 0, 0, 1, 0, 0, 0, 0, 0, 0, 0\n0, 0, 0, 0, 0, 0, 0, 0, 0, 0, 0, 0, 0]", fillcolor="#64e539"] ;
113 -> 114 ;
115 [label="entropy = 0.0\nsamples = 2\nvalue = [0, 0, 0, 0, 0, 2, 0, 0, 0, 0, 0, 0, 0, 0\n0, 0, 0, 0, 0, 0, 0, 0, 0, 0, 0, 0, 0]", fillcolor="#8ce539"] ;
113 -> 115 ;
116 [label="diam_mm <= 0.22\nentropy = 0.811\nsamples = 4\nvalue = [0, 0, 0, 3, 0, 1, 0, 0, 0, 0, 0, 0, 0, 0\n0, 0, 0, 0, 0, 0, 0, 0, 0, 0, 0, 0, 0]", fillcolor="#e4ee7b"] ;
112 -> 116 ;
117 [label="entropy = 0.0\nsamples = 3\nvalue = [0, 0, 0, 3, 0, 0, 0, 0, 0, 0, 0, 0, 0, 0\n0, 0, 0, 0, 0, 0, 0, 0, 0, 0, 0, 0, 0]", fillcolor="#d7e539"] ;
116 -> 117 ;
118 [label="entropy = 0.0\nsamples = 1\nvalue = [0, 0, 0, 0, 0, 1, 0, 0, 0, 0, 0, 0, 0, 0\n0, 0, 0, 0, 0, 0, 0, 0, 0, 0, 0, 0, 0]", fillcolor="#8ce539"] ;
116 -> 118 ;
119 [label="entropy = 0.0\nsamples = 9\nvalue = [0, 0, 0, 9, 0, 0, 0, 0, 0, 0, 0, 0, 0, 0\n0, 0, 0, 0, 0, 0, 0, 0, 0, 0, 0, 0, 0]", fillcolor="#d7e539"] ;
111 -> 119 ;
120 [label="viscera_weight_g <= 0.02\nentropy = 0.918\nsamples = 3\nvalue = [0, 0, 1, 0, 2, 0, 0, 0, 0, 0, 0, 0, 0, 0\n0, 0, 0, 0, 0, 0, 0, 0, 0, 0, 0, 0, 0]", fillcolor="#d8f29c"] ;
106 -> 120 ;
121 [label="entropy = 0.0\nsamples = 2\nvalue = [0, 0, 0, 0, 2, 0, 0, 0, 0, 0, 0, 0, 0, 0\n0, 0, 0, 0, 0, 0, 0, 0, 0, 0, 0, 0, 0]", fillcolor="#b1e539"] ;
120 -> 121 ;
122 [label="entropy = 0.0\nsamples = 1\nvalue = [0, 0, 1, 0, 0, 0, 0, 0, 0, 0, 0, 0, 0, 0\n0, 0, 0, 0, 0, 0, 0, 0, 0, 0, 0, 0, 0]", fillcolor="#e5cb39"] ;
120 -> 122 ;
123 [label="shucked_weight_g <= 0.044\nentropy = 2.047\nsamples = 49\nvalue = [0, 0, 5, 7, 23, 8, 6, 0, 0, 0, 0, 0, 0, 0\n0, 0, 0, 0, 0, 0, 0, 0, 0, 0, 0, 0, 0]", fillcolor="#e2f5b7"] ;
63 -> 123 ;
124 [label="length_mm <= 0.292\nentropy = 1.846\nsamples = 10\nvalue = [0, 0, 0, 1, 3, 2, 4, 0, 0, 0, 0, 0, 0, 0\n0, 0, 0, 0, 0, 0, 0, 0, 0, 0, 0, 0, 0]", fillcolor="#e9fbe3"] ;
123 -> 124 ;
125 [label="shell_weight_g <= 0.032\nentropy = 1.459\nsamples = 6\nvalue = [0, 0, 0, 1, 3, 2, 0, 0, 0, 0, 0, 0, 0, 0\n0, 0, 0, 0, 0, 0, 0, 0, 0, 0, 0, 0, 0]", fillcolor="#ecf8ce"] ;
124 -> 125 ;
126 [label="entropy = 0.0\nsamples = 3\nvalue = [0, 0, 0, 0, 3, 0, 0, 0, 0, 0, 0, 0, 0, 0\n0, 0, 0, 0, 0, 0, 0, 0, 0, 0, 0, 0, 0]", fillcolor="#b1e539"] ;
125 -> 126 ;
127 [label="whole_weight_g <= 0.107\nentropy = 0.918\nsamples = 3\nvalue = [0, 0, 0, 1, 0, 2, 0, 0, 0, 0, 0, 0, 0, 0\n0, 0, 0, 0, 0, 0, 0, 0, 0, 0, 0, 0, 0]", fillcolor="#c6f29c"] ;
125 -> 127 ;
128 [label="entropy = 0.0\nsamples = 1\nvalue = [0, 0, 0, 1, 0, 0, 0, 0, 0, 0, 0, 0, 0, 0\n0, 0, 0, 0, 0, 0, 0, 0, 0, 0, 0, 0, 0]", fillcolor="#d7e539"] ;
127 -> 128 ;
129 [label="entropy = 0.0\nsamples = 2\nvalue = [0, 0, 0, 0, 0, 2, 0, 0, 0, 0, 0, 0, 0, 0\n0, 0, 0, 0, 0, 0, 0, 0, 0, 0, 0, 0, 0]", fillcolor="#8ce539"] ;
127 -> 129 ;
130 [label="entropy = 0.0\nsamples = 4\nvalue = [0, 0, 0, 0, 0, 0, 4, 0, 0, 0, 0, 0, 0, 0\n0, 0, 0, 0, 0, 0, 0, 0, 0, 0, 0, 0, 0]", fillcolor="#64e539"] ;
124 -> 130 ;
131 [label="shucked_weight_g <= 0.051\nentropy = 1.925\nsamples = 39\nvalue = [0, 0, 5, 6, 20, 6, 2, 0, 0, 0, 0, 0, 0, 0\n0, 0, 0, 0, 0, 0, 0, 0, 0, 0, 0, 0, 0]", fillcolor="#def4ab"] ;
123 -> 131 ;
132 [label="shell_weight_g <= 0.04\nentropy = 1.555\nsamples = 12\nvalue = [0, 0, 4, 0, 5, 3, 0, 0, 0, 0, 0, 0, 0, 0\n0, 0, 0, 0, 0, 0, 0, 0, 0, 0, 0, 0, 0]", fillcolor="#f5fce6"] ;
131 -> 132 ;
133 [label="diam_mm <= 0.197\nentropy = 1.485\nsamples = 10\nvalue = [0, 0, 2, 0, 5, 3, 0, 0, 0, 0, 0, 0, 0, 0\n0, 0, 0, 0, 0, 0, 0, 0, 0, 0, 0, 0, 0]", fillcolor="#e9f8c6"] ;
132 -> 133 ;
134 [label="entropy = 0.0\nsamples = 2\nvalue = [0, 0, 2, 0, 0, 0, 0, 0, 0, 0, 0, 0, 0, 0\n0, 0, 0, 0, 0, 0, 0, 0, 0, 0, 0, 0, 0]", fillcolor="#e5cb39"] ;
133 -> 134 ;
135 [label="viscera_weight_g <= 0.029\nentropy = 0.954\nsamples = 8\nvalue = [0, 0, 0, 0, 5, 3, 0, 0, 0, 0, 0, 0, 0, 0\n0, 0, 0, 0, 0, 0, 0, 0, 0, 0, 0, 0, 0]", fillcolor="#e0f5b0"] ;
133 -> 135 ;
136 [label="height_mm <= 0.06\nentropy = 0.65\nsamples = 6\nvalue = [0, 0, 0, 0, 5, 1, 0, 0, 0, 0, 0, 0, 0, 0\n0, 0, 0, 0, 0, 0, 0, 0, 0, 0, 0, 0, 0]", fillcolor="#c1ea61"] ;
135 -> 136 ;
137 [label="entropy = 0.0\nsamples = 1\nvalue = [0, 0, 0, 0, 0, 1, 0, 0, 0, 0, 0, 0, 0, 0\n0, 0, 0, 0, 0, 0, 0, 0, 0, 0, 0, 0, 0]", fillcolor="#8ce539"] ;
136 -> 137 ;
138 [label="entropy = 0.0\nsamples = 5\nvalue = [0, 0, 0, 0, 5, 0, 0, 0, 0, 0, 0, 0, 0, 0\n0, 0, 0, 0, 0, 0, 0, 0, 0, 0, 0, 0, 0]", fillcolor="#b1e539"] ;
136 -> 138 ;
139 [label="entropy = 0.0\nsamples = 2\nvalue = [0, 0, 0, 0, 0, 2, 0, 0, 0, 0, 0, 0, 0, 0\n0, 0, 0, 0, 0, 0, 0, 0, 0, 0, 0, 0, 0]", fillcolor="#8ce539"] ;
135 -> 139 ;
140 [label="entropy = 0.0\nsamples = 2\nvalue = [0, 0, 2, 0, 0, 0, 0, 0, 0, 0, 0, 0, 0, 0\n0, 0, 0, 0, 0, 0, 0, 0, 0, 0, 0, 0, 0]", fillcolor="#e5cb39"] ;
132 -> 140 ;
141 [label="whole_weight_g <= 0.119\nentropy = 1.76\nsamples = 27\nvalue = [0, 0, 1, 6, 15, 3, 2, 0, 0, 0, 0, 0, 0, 0\n0, 0, 0, 0, 0, 0, 0, 0, 0, 0, 0, 0, 0]", fillcolor="#def4aa"] ;
131 -> 141 ;
142 [label="length_mm <= 0.275\nentropy = 1.0\nsamples = 2\nvalue = [0, 0, 1, 1, 0, 0, 0, 0, 0, 0, 0, 0, 0, 0\n0, 0, 0, 0, 0, 0, 0, 0, 0, 0, 0, 0, 0]", fillcolor="#ffffff"] ;
141 -> 142 ;
143 [label="entropy = 0.0\nsamples = 1\nvalue = [0, 0, 1, 0, 0, 0, 0, 0, 0, 0, 0, 0, 0, 0\n0, 0, 0, 0, 0, 0, 0, 0, 0, 0, 0, 0, 0]", fillcolor="#e5cb39"] ;
142 -> 143 ;
144 [label="entropy = 0.0\nsamples = 1\nvalue = [0, 0, 0, 1, 0, 0, 0, 0, 0, 0, 0, 0, 0, 0\n0, 0, 0, 0, 0, 0, 0, 0, 0, 0, 0, 0, 0]", fillcolor="#d7e539"] ;
142 -> 144 ;
145 [label="viscera_weight_g <= 0.031\nentropy = 1.565\nsamples = 25\nvalue = [0, 0, 0, 5, 15, 3, 2, 0, 0, 0, 0, 0, 0, 0\n0, 0, 0, 0, 0, 0, 0, 0, 0, 0, 0, 0, 0]", fillcolor="#d8f29c"] ;
141 -> 145 ;
146 [label="shucked_weight_g <= 0.054\nentropy = 1.384\nsamples = 23\nvalue = [0, 0, 0, 5, 15, 2, 1, 0, 0, 0, 0, 0, 0, 0\n0, 0, 0, 0, 0, 0, 0, 0, 0, 0, 0, 0, 0]", fillcolor="#d4f191"] ;
145 -> 146 ;
147 [label="shell_weight_g <= 0.037\nentropy = 0.722\nsamples = 5\nvalue = [0, 0, 0, 0, 4, 0, 1, 0, 0, 0, 0, 0, 0, 0\n0, 0, 0, 0, 0, 0, 0, 0, 0, 0, 0, 0, 0]", fillcolor="#c4ec6a"] ;
146 -> 147 ;
148 [label="entropy = 0.0\nsamples = 4\nvalue = [0, 0, 0, 0, 4, 0, 0, 0, 0, 0, 0, 0, 0, 0\n0, 0, 0, 0, 0, 0, 0, 0, 0, 0, 0, 0, 0]", fillcolor="#b1e539"] ;
147 -> 148 ;
149 [label="entropy = 0.0\nsamples = 1\nvalue = [0, 0, 0, 0, 0, 0, 1, 0, 0, 0, 0, 0, 0, 0\n0, 0, 0, 0, 0, 0, 0, 0, 0, 0, 0, 0, 0]", fillcolor="#64e539"] ;
147 -> 149 ;
150 [label="shell_weight_g <= 0.037\nentropy = 1.3\nsamples = 18\nvalue = [0, 0, 0, 5, 11, 2, 0, 0, 0, 0, 0, 0, 0, 0\n0, 0, 0, 0, 0, 0, 0, 0, 0, 0, 0, 0, 0]", fillcolor="#dbf3a4"] ;
146 -> 150 ;
151 [label="length_mm <= 0.308\nentropy = 1.459\nsamples = 6\nvalue = [0, 0, 0, 3, 1, 2, 0, 0, 0, 0, 0, 0, 0, 0\n0, 0, 0, 0, 0, 0, 0, 0, 0, 0, 0, 0, 0]", fillcolor="#f5f8ce"] ;
150 -> 151 ;
152 [label="shucked_weight_g <= 0.058\nentropy = 0.811\nsamples = 4\nvalue = [0, 0, 0, 3, 1, 0, 0, 0, 0, 0, 0, 0, 0, 0\n0, 0, 0, 0, 0, 0, 0, 0, 0, 0, 0, 0, 0]", fillcolor="#e4ee7b"] ;
151 -> 152 ;
153 [label="entropy = 0.0\nsamples = 1\nvalue = [0, 0, 0, 0, 1, 0, 0, 0, 0, 0, 0, 0, 0, 0\n0, 0, 0, 0, 0, 0, 0, 0, 0, 0, 0, 0, 0]", fillcolor="#b1e539"] ;
152 -> 153 ;
154 [label="entropy = 0.0\nsamples = 3\nvalue = [0, 0, 0, 3, 0, 0, 0, 0, 0, 0, 0, 0, 0, 0\n0, 0, 0, 0, 0, 0, 0, 0, 0, 0, 0, 0, 0]", fillcolor="#d7e539"] ;
152 -> 154 ;
155 [label="entropy = 0.0\nsamples = 2\nvalue = [0, 0, 0, 0, 0, 2, 0, 0, 0, 0, 0, 0, 0, 0\n0, 0, 0, 0, 0, 0, 0, 0, 0, 0, 0, 0, 0]", fillcolor="#8ce539"] ;
151 -> 155 ;
156 [label="height_mm <= 0.088\nentropy = 0.65\nsamples = 12\nvalue = [0, 0, 0, 2, 10, 0, 0, 0, 0, 0, 0, 0, 0, 0\n0, 0, 0, 0, 0, 0, 0, 0, 0, 0, 0, 0, 0]", fillcolor="#c1ea61"] ;
150 -> 156 ;
157 [label="shucked_weight_g <= 0.055\nentropy = 0.439\nsamples = 11\nvalue = [0, 0, 0, 1, 10, 0, 0, 0, 0, 0, 0, 0, 0, 0\n0, 0, 0, 0, 0, 0, 0, 0, 0, 0, 0, 0, 0]", fillcolor="#b9e84d"] ;
156 -> 157 ;
158 [label="entropy = 0.0\nsamples = 1\nvalue = [0, 0, 0, 1, 0, 0, 0, 0, 0, 0, 0, 0, 0, 0\n0, 0, 0, 0, 0, 0, 0, 0, 0, 0, 0, 0, 0]", fillcolor="#d7e539"] ;
157 -> 158 ;
159 [label="entropy = 0.0\nsamples = 10\nvalue = [0, 0, 0, 0, 10, 0, 0, 0, 0, 0, 0, 0, 0, 0\n0, 0, 0, 0, 0, 0, 0, 0, 0, 0, 0, 0, 0]", fillcolor="#b1e539"] ;
157 -> 159 ;
160 [label="entropy = 0.0\nsamples = 1\nvalue = [0, 0, 0, 1, 0, 0, 0, 0, 0, 0, 0, 0, 0, 0\n0, 0, 0, 0, 0, 0, 0, 0, 0, 0, 0, 0, 0]", fillcolor="#d7e539"] ;
156 -> 160 ;
161 [label="shell_weight_g <= 0.043\nentropy = 1.0\nsamples = 2\nvalue = [0, 0, 0, 0, 0, 1, 1, 0, 0, 0, 0, 0, 0, 0\n0, 0, 0, 0, 0, 0, 0, 0, 0, 0, 0, 0, 0]", fillcolor="#ffffff"] ;
145 -> 161 ;
162 [label="entropy = 0.0\nsamples = 1\nvalue = [0, 0, 0, 0, 0, 0, 1, 0, 0, 0, 0, 0, 0, 0\n0, 0, 0, 0, 0, 0, 0, 0, 0, 0, 0, 0, 0]", fillcolor="#64e539"] ;
161 -> 162 ;
163 [label="entropy = 0.0\nsamples = 1\nvalue = [0, 0, 0, 0, 0, 1, 0, 0, 0, 0, 0, 0, 0, 0\n0, 0, 0, 0, 0, 0, 0, 0, 0, 0, 0, 0, 0]", fillcolor="#8ce539"] ;
161 -> 163 ;
164 [label="viscera_weight_g <= 0.041\nentropy = 2.163\nsamples = 36\nvalue = [0, 0, 1, 8, 12, 10, 0, 4, 0, 1, 0, 0, 0, 0\n0, 0, 0, 0, 0, 0, 0, 0, 0, 0, 0, 0, 0]", fillcolor="#f9fdf0"] ;
62 -> 164 ;
165 [label="shucked_weight_g <= 0.054\nentropy = 2.044\nsamples = 27\nvalue = [0, 0, 1, 2, 10, 10, 0, 3, 0, 1, 0, 0, 0, 0\n0, 0, 0, 0, 0, 0, 0, 0, 0, 0, 0, 0, 0]", fillcolor="#ffffff"] ;
164 -> 165 ;
166 [label="shucked_weight_g <= 0.044\nentropy = 1.792\nsamples = 6\nvalue = [0, 0, 0, 0, 1, 1, 0, 3, 0, 1, 0, 0, 0, 0\n0, 0, 0, 0, 0, 0, 0, 0, 0, 0, 0, 0, 0]", fillcolor="#b2f5b0"] ;
165 -> 166 ;
167 [label="length_mm <= 0.312\nentropy = 1.0\nsamples = 2\nvalue = [0, 0, 0, 0, 0, 1, 0, 0, 0, 1, 0, 0, 0, 0\n0, 0, 0, 0, 0, 0, 0, 0, 0, 0, 0, 0, 0]", fillcolor="#ffffff"] ;
166 -> 167 ;
168 [label="entropy = 0.0\nsamples = 1\nvalue = [0, 0, 0, 0, 0, 0, 0, 0, 0, 1, 0, 0, 0, 0\n0, 0, 0, 0, 0, 0, 0, 0, 0, 0, 0, 0, 0]", fillcolor="#39e581"] ;
167 -> 168 ;
169 [label="entropy = 0.0\nsamples = 1\nvalue = [0, 0, 0, 0, 0, 1, 0, 0, 0, 0, 0, 0, 0, 0\n0, 0, 0, 0, 0, 0, 0, 0, 0, 0, 0, 0, 0]", fillcolor="#8ce539"] ;
167 -> 169 ;
170 [label="height_mm <= 0.082\nentropy = 0.811\nsamples = 4\nvalue = [0, 0, 0, 0, 1, 0, 0, 3, 0, 0, 0, 0, 0, 0\n0, 0, 0, 0, 0, 0, 0, 0, 0, 0, 0, 0, 0]", fillcolor="#7fee7b"] ;
166 -> 170 ;
171 [label="entropy = 0.0\nsamples = 3\nvalue = [0, 0, 0, 0, 0, 0, 0, 3, 0, 0, 0, 0, 0, 0\n0, 0, 0, 0, 0, 0, 0, 0, 0, 0, 0, 0, 0]", fillcolor="#3fe539"] ;
170 -> 171 ;
172 [label="entropy = 0.0\nsamples = 1\nvalue = [0, 0, 0, 0, 1, 0, 0, 0, 0, 0, 0, 0, 0, 0\n0, 0, 0, 0, 0, 0, 0, 0, 0, 0, 0, 0, 0]", fillcolor="#b1e539"] ;
170 -> 172 ;
173 [label="whole_weight_g <= 0.172\nentropy = 1.58\nsamples = 21\nvalue = [0, 0, 1, 2, 9, 9, 0, 0, 0, 0, 0, 0, 0, 0\n0, 0, 0, 0, 0, 0, 0, 0, 0, 0, 0, 0, 0]", fillcolor="#ffffff"] ;
165 -> 173 ;
174 [label="shucked_weight_g <= 0.06\nentropy = 1.609\nsamples = 17\nvalue = [0, 0, 1, 2, 9, 5, 0, 0, 0, 0, 0, 0, 0, 0\n0, 0, 0, 0, 0, 0, 0, 0, 0, 0, 0, 0, 0]", fillcolor="#e5f6bd"] ;
173 -> 174 ;
175 [label="shell_weight_g <= 0.043\nentropy = 1.379\nsamples = 7\nvalue = [0, 0, 1, 0, 2, 4, 0, 0, 0, 0, 0, 0, 0, 0\n0, 0, 0, 0, 0, 0, 0, 0, 0, 0, 0, 0, 0]", fillcolor="#d1f5b0"] ;
174 -> 175 ;
176 [label="entropy = 0.0\nsamples = 2\nvalue = [0, 0, 0, 0, 2, 0, 0, 0, 0, 0, 0, 0, 0, 0\n0, 0, 0, 0, 0, 0, 0, 0, 0, 0, 0, 0, 0]", fillcolor="#b1e539"] ;
175 -> 176 ;
177 [label="shucked_weight_g <= 0.059\nentropy = 0.722\nsamples = 5\nvalue = [0, 0, 1, 0, 0, 4, 0, 0, 0, 0, 0, 0, 0, 0\n0, 0, 0, 0, 0, 0, 0, 0, 0, 0, 0, 0, 0]", fillcolor="#a9ec6a"] ;
175 -> 177 ;
178 [label="entropy = 0.0\nsamples = 4\nvalue = [0, 0, 0, 0, 0, 4, 0, 0, 0, 0, 0, 0, 0, 0\n0, 0, 0, 0, 0, 0, 0, 0, 0, 0, 0, 0, 0]", fillcolor="#8ce539"] ;
177 -> 178 ;
179 [label="entropy = 0.0\nsamples = 1\nvalue = [0, 0, 1, 0, 0, 0, 0, 0, 0, 0, 0, 0, 0, 0\n0, 0, 0, 0, 0, 0, 0, 0, 0, 0, 0, 0, 0]", fillcolor="#e5cb39"] ;
177 -> 179 ;
180 [label="viscera_weight_g <= 0.037\nentropy = 1.157\nsamples = 10\nvalue = [0, 0, 0, 2, 7, 1, 0, 0, 0, 0, 0, 0, 0, 0\n0, 0, 0, 0, 0, 0, 0, 0, 0, 0, 0, 0, 0]", fillcolor="#ceef83"] ;
174 -> 180 ;
181 [label="shell_weight_g <= 0.046\nentropy = 0.863\nsamples = 7\nvalue = [0, 0, 0, 2, 5, 0, 0, 0, 0, 0, 0, 0, 0, 0\n0, 0, 0, 0, 0, 0, 0, 0, 0, 0, 0, 0, 0]", fillcolor="#d0ef88"] ;
180 -> 181 ;
182 [label="viscera_weight_g <= 0.033\nentropy = 0.65\nsamples = 6\nvalue = [0, 0, 0, 1, 5, 0, 0, 0, 0, 0, 0, 0, 0, 0\n0, 0, 0, 0, 0, 0, 0, 0, 0, 0, 0, 0, 0]", fillcolor="#c1ea61"] ;
181 -> 182 ;
183 [label="entropy = 0.0\nsamples = 1\nvalue = [0, 0, 0, 1, 0, 0, 0, 0, 0, 0, 0, 0, 0, 0\n0, 0, 0, 0, 0, 0, 0, 0, 0, 0, 0, 0, 0]", fillcolor="#d7e539"] ;
182 -> 183 ;
184 [label="entropy = 0.0\nsamples = 5\nvalue = [0, 0, 0, 0, 5, 0, 0, 0, 0, 0, 0, 0, 0, 0\n0, 0, 0, 0, 0, 0, 0, 0, 0, 0, 0, 0, 0]", fillcolor="#b1e539"] ;
182 -> 184 ;
185 [label="entropy = 0.0\nsamples = 1\nvalue = [0, 0, 0, 1, 0, 0, 0, 0, 0, 0, 0, 0, 0, 0\n0, 0, 0, 0, 0, 0, 0, 0, 0, 0, 0, 0, 0]", fillcolor="#d7e539"] ;
181 -> 185 ;
186 [label="height_mm <= 0.073\nentropy = 0.918\nsamples = 3\nvalue = [0, 0, 0, 0, 2, 1, 0, 0, 0, 0, 0, 0, 0, 0\n0, 0, 0, 0, 0, 0, 0, 0, 0, 0, 0, 0, 0]", fillcolor="#d8f29c"] ;
180 -> 186 ;
187 [label="entropy = 0.0\nsamples = 2\nvalue = [0, 0, 0, 0, 2, 0, 0, 0, 0, 0, 0, 0, 0, 0\n0, 0, 0, 0, 0, 0, 0, 0, 0, 0, 0, 0, 0]", fillcolor="#b1e539"] ;
186 -> 187 ;
188 [label="entropy = 0.0\nsamples = 1\nvalue = [0, 0, 0, 0, 0, 1, 0, 0, 0, 0, 0, 0, 0, 0\n0, 0, 0, 0, 0, 0, 0, 0, 0, 0, 0, 0, 0]", fillcolor="#8ce539"] ;
186 -> 188 ;
189 [label="entropy = 0.0\nsamples = 4\nvalue = [0, 0, 0, 0, 0, 4, 0, 0, 0, 0, 0, 0, 0, 0\n0, 0, 0, 0, 0, 0, 0, 0, 0, 0, 0, 0, 0]", fillcolor="#8ce539"] ;
173 -> 189 ;
190 [label="viscera_weight_g <= 0.055\nentropy = 1.224\nsamples = 9\nvalue = [0, 0, 0, 6, 2, 0, 0, 1, 0, 0, 0, 0, 0, 0\n0, 0, 0, 0, 0, 0, 0, 0, 0, 0, 0, 0, 0]", fillcolor="#e8f08e"] ;
164 -> 190 ;
191 [label="entropy = 0.0\nsamples = 6\nvalue = [0, 0, 0, 6, 0, 0, 0, 0, 0, 0, 0, 0, 0, 0\n0, 0, 0, 0, 0, 0, 0, 0, 0, 0, 0, 0, 0]", fillcolor="#d7e539"] ;
190 -> 191 ;
192 [label="shell_weight_g <= 0.044\nentropy = 0.918\nsamples = 3\nvalue = [0, 0, 0, 0, 2, 0, 0, 1, 0, 0, 0, 0, 0, 0\n0, 0, 0, 0, 0, 0, 0, 0, 0, 0, 0, 0, 0]", fillcolor="#d8f29c"] ;
190 -> 192 ;
193 [label="entropy = 0.0\nsamples = 2\nvalue = [0, 0, 0, 0, 2, 0, 0, 0, 0, 0, 0, 0, 0, 0\n0, 0, 0, 0, 0, 0, 0, 0, 0, 0, 0, 0, 0]", fillcolor="#b1e539"] ;
192 -> 193 ;
194 [label="entropy = 0.0\nsamples = 1\nvalue = [0, 0, 0, 0, 0, 0, 0, 1, 0, 0, 0, 0, 0, 0\n0, 0, 0, 0, 0, 0, 0, 0, 0, 0, 0, 0, 0]", fillcolor="#3fe539"] ;
192 -> 194 ;
195 [label="shell_weight_g <= 0.119\nentropy = 2.735\nsamples = 768\nvalue = [0, 0, 1, 18, 141, 215, 182, 89, 54, 25, 18, 13\n4, 3, 4, 0, 1, 0, 0, 0, 0, 0, 0, 0, 0, 0\n0]", fillcolor="#f9fef4"] ;
1 -> 195 ;
196 [label="is_male <= 0.5\nentropy = 2.605\nsamples = 500\nvalue = [0, 0, 1, 18, 128, 156, 87, 49, 28, 16, 8, 4, 3\n2, 0, 0, 0, 0, 0, 0, 0, 0, 0, 0, 0, 0, 0]", fillcolor="#f6fdf0"] ;
195 -> 196 ;
197 [label="shell_weight_g <= 0.072\nentropy = 2.432\nsamples = 405\nvalue = [0, 0, 1, 18, 119, 135, 71, 25, 19, 8, 4, 3, 2\n0, 0, 0, 0, 0, 0, 0, 0, 0, 0, 0, 0, 0, 0]", fillcolor="#f9fef4"] ;
196 -> 197 ;
198 [label="shucked_weight_g <= 0.075\nentropy = 2.171\nsamples = 131\nvalue = [0, 0, 1, 12, 51, 41, 18, 4, 2, 1, 0, 1, 0, 0\n0, 0, 0, 0, 0, 0, 0, 0, 0, 0, 0, 0, 0]", fillcolor="#f6fce9"] ;
197 -> 198 ;
199 [label="viscera_weight_g <= 0.034\nentropy = 2.539\nsamples = 29\nvalue = [0, 0, 0, 2, 8, 7, 5, 4, 2, 0, 0, 1, 0, 0\n0, 0, 0, 0, 0, 0, 0, 0, 0, 0, 0, 0, 0]", fillcolor="#fbfef6"] ;
198 -> 199 ;
200 [label="shell_weight_g <= 0.052\nentropy = 2.197\nsamples = 9\nvalue = [0, 0, 0, 2, 3, 1, 2, 0, 0, 0, 0, 1, 0, 0\n0, 0, 0, 0, 0, 0, 0, 0, 0, 0, 0, 0, 0]", fillcolor="#f4fbe3"] ;
199 -> 200 ;
201 [label="whole_weight_g <= 0.142\nentropy = 1.792\nsamples = 6\nvalue = [0, 0, 0, 1, 3, 1, 0, 0, 0, 0, 0, 1, 0, 0\n0, 0, 0, 0, 0, 0, 0, 0, 0, 0, 0, 0, 0]", fillcolor="#e0f5b0"] ;
200 -> 201 ;
202 [label="entropy = 0.0\nsamples = 1\nvalue = [0, 0, 0, 1, 0, 0, 0, 0, 0, 0, 0, 0, 0, 0\n0, 0, 0, 0, 0, 0, 0, 0, 0, 0, 0, 0, 0]", fillcolor="#d7e539"] ;
201 -> 202 ;
203 [label="shucked_weight_g <= 0.057\nentropy = 1.371\nsamples = 5\nvalue = [0, 0, 0, 0, 3, 1, 0, 0, 0, 0, 0, 1, 0, 0\n0, 0, 0, 0, 0, 0, 0, 0, 0, 0, 0, 0, 0]", fillcolor="#d8f29c"] ;
201 -> 203 ;
204 [label="entropy = 0.0\nsamples = 1\nvalue = [0, 0, 0, 0, 0, 1, 0, 0, 0, 0, 0, 0, 0, 0\n0, 0, 0, 0, 0, 0, 0, 0, 0, 0, 0, 0, 0]", fillcolor="#8ce539"] ;
203 -> 204 ;
205 [label="height_mm <= 0.078\nentropy = 0.811\nsamples = 4\nvalue = [0, 0, 0, 0, 3, 0, 0, 0, 0, 0, 0, 1, 0, 0\n0, 0, 0, 0, 0, 0, 0, 0, 0, 0, 0, 0, 0]", fillcolor="#cbee7b"] ;
203 -> 205 ;
206 [label="entropy = 0.0\nsamples = 3\nvalue = [0, 0, 0, 0, 3, 0, 0, 0, 0, 0, 0, 0, 0, 0\n0, 0, 0, 0, 0, 0, 0, 0, 0, 0, 0, 0, 0]", fillcolor="#b1e539"] ;
205 -> 206 ;
207 [label="entropy = 0.0\nsamples = 1\nvalue = [0, 0, 0, 0, 0, 0, 0, 0, 0, 0, 0, 1, 0, 0\n0, 0, 0, 0, 0, 0, 0, 0, 0, 0, 0, 0, 0]", fillcolor="#39e5cb"] ;
205 -> 207 ;
208 [label="shell_weight_g <= 0.058\nentropy = 0.918\nsamples = 3\nvalue = [0, 0, 0, 1, 0, 0, 2, 0, 0, 0, 0, 0, 0, 0\n0, 0, 0, 0, 0, 0, 0, 0, 0, 0, 0, 0, 0]", fillcolor="#b2f29c"] ;
200 -> 208 ;
209 [label="entropy = 0.0\nsamples = 2\nvalue = [0, 0, 0, 0, 0, 0, 2, 0, 0, 0, 0, 0, 0, 0\n0, 0, 0, 0, 0, 0, 0, 0, 0, 0, 0, 0, 0]", fillcolor="#64e539"] ;
208 -> 209 ;
210 [label="entropy = 0.0\nsamples = 1\nvalue = [0, 0, 0, 1, 0, 0, 0, 0, 0, 0, 0, 0, 0, 0\n0, 0, 0, 0, 0, 0, 0, 0, 0, 0, 0, 0, 0]", fillcolor="#d7e539"] ;
208 -> 210 ;
211 [label="length_mm <= 0.347\nentropy = 2.228\nsamples = 20\nvalue = [0, 0, 0, 0, 5, 6, 3, 4, 2, 0, 0, 0, 0, 0\n0, 0, 0, 0, 0, 0, 0, 0, 0, 0, 0, 0, 0]", fillcolor="#f7fdf2"] ;
199 -> 211 ;
212 [label="whole_weight_g <= 0.167\nentropy = 1.918\nsamples = 12\nvalue = [0, 0, 0, 0, 4, 2, 2, 4, 0, 0, 0, 0, 0, 0\n0, 0, 0, 0, 0, 0, 0, 0, 0, 0, 0, 0, 0]", fillcolor="#ffffff"] ;
211 -> 212 ;
213 [label="viscera_weight_g <= 0.037\nentropy = 0.918\nsamples = 3\nvalue = [0, 0, 0, 0, 0, 0, 2, 1, 0, 0, 0, 0, 0, 0\n0, 0, 0, 0, 0, 0, 0, 0, 0, 0, 0, 0, 0]", fillcolor="#b2f29c"] ;
212 -> 213 ;
214 [label="entropy = 0.0\nsamples = 1\nvalue = [0, 0, 0, 0, 0, 0, 0, 1, 0, 0, 0, 0, 0, 0\n0, 0, 0, 0, 0, 0, 0, 0, 0, 0, 0, 0, 0]", fillcolor="#3fe539"] ;
213 -> 214 ;
215 [label="entropy = 0.0\nsamples = 2\nvalue = [0, 0, 0, 0, 0, 0, 2, 0, 0, 0, 0, 0, 0, 0\n0, 0, 0, 0, 0, 0, 0, 0, 0, 0, 0, 0, 0]", fillcolor="#64e539"] ;
213 -> 215 ;
216 [label="height_mm <= 0.093\nentropy = 1.53\nsamples = 9\nvalue = [0, 0, 0, 0, 4, 2, 0, 3, 0, 0, 0, 0, 0, 0\n0, 0, 0, 0, 0, 0, 0, 0, 0, 0, 0, 0, 0]", fillcolor="#f2fbde"] ;
212 -> 216 ;
217 [label="viscera_weight_g <= 0.04\nentropy = 1.379\nsamples = 7\nvalue = [0, 0, 0, 0, 4, 2, 0, 1, 0, 0, 0, 0, 0, 0\n0, 0, 0, 0, 0, 0, 0, 0, 0, 0, 0, 0, 0]", fillcolor="#e0f5b0"] ;
216 -> 217 ;
218 [label="height_mm <= 0.088\nentropy = 0.918\nsamples = 3\nvalue = [0, 0, 0, 0, 1, 2, 0, 0, 0, 0, 0, 0, 0, 0\n0, 0, 0, 0, 0, 0, 0, 0, 0, 0, 0, 0, 0]", fillcolor="#c6f29c"] ;
217 -> 218 ;
219 [label="entropy = 0.0\nsamples = 2\nvalue = [0, 0, 0, 0, 0, 2, 0, 0, 0, 0, 0, 0, 0, 0\n0, 0, 0, 0, 0, 0, 0, 0, 0, 0, 0, 0, 0]", fillcolor="#8ce539"] ;
218 -> 219 ;
220 [label="entropy = 0.0\nsamples = 1\nvalue = [0, 0, 0, 0, 1, 0, 0, 0, 0, 0, 0, 0, 0, 0\n0, 0, 0, 0, 0, 0, 0, 0, 0, 0, 0, 0, 0]", fillcolor="#b1e539"] ;
218 -> 220 ;
221 [label="height_mm <= 0.082\nentropy = 0.811\nsamples = 4\nvalue = [0, 0, 0, 0, 3, 0, 0, 1, 0, 0, 0, 0, 0, 0\n0, 0, 0, 0, 0, 0, 0, 0, 0, 0, 0, 0, 0]", fillcolor="#cbee7b"] ;
217 -> 221 ;
222 [label="entropy = 0.0\nsamples = 3\nvalue = [0, 0, 0, 0, 3, 0, 0, 0, 0, 0, 0, 0, 0, 0\n0, 0, 0, 0, 0, 0, 0, 0, 0, 0, 0, 0, 0]", fillcolor="#b1e539"] ;
221 -> 222 ;
223 [label="entropy = 0.0\nsamples = 1\nvalue = [0, 0, 0, 0, 0, 0, 0, 1, 0, 0, 0, 0, 0, 0\n0, 0, 0, 0, 0, 0, 0, 0, 0, 0, 0, 0, 0]", fillcolor="#3fe539"] ;
221 -> 223 ;
224 [label="entropy = 0.0\nsamples = 2\nvalue = [0, 0, 0, 0, 0, 0, 0, 2, 0, 0, 0, 0, 0, 0\n0, 0, 0, 0, 0, 0, 0, 0, 0, 0, 0, 0, 0]", fillcolor="#3fe539"] ;
216 -> 224 ;
225 [label="viscera_weight_g <= 0.047\nentropy = 1.75\nsamples = 8\nvalue = [0, 0, 0, 0, 1, 4, 1, 0, 2, 0, 0, 0, 0, 0\n0, 0, 0, 0, 0, 0, 0, 0, 0, 0, 0, 0, 0]", fillcolor="#d9f6bd"] ;
211 -> 225 ;
226 [label="height_mm <= 0.088\nentropy = 0.918\nsamples = 6\nvalue = [0, 0, 0, 0, 0, 4, 0, 0, 2, 0, 0, 0, 0, 0\n0, 0, 0, 0, 0, 0, 0, 0, 0, 0, 0, 0, 0]", fillcolor="#c6f29c"] ;
225 -> 226 ;
227 [label="diam_mm <= 0.247\nentropy = 0.918\nsamples = 3\nvalue = [0, 0, 0, 0, 0, 1, 0, 0, 2, 0, 0, 0, 0, 0\n0, 0, 0, 0, 0, 0, 0, 0, 0, 0, 0, 0, 0]", fillcolor="#9cf2ac"] ;
226 -> 227 ;
228 [label="entropy = 0.0\nsamples = 1\nvalue = [0, 0, 0, 0, 0, 1, 0, 0, 0, 0, 0, 0, 0, 0\n0, 0, 0, 0, 0, 0, 0, 0, 0, 0, 0, 0, 0]", fillcolor="#8ce539"] ;
227 -> 228 ;
229 [label="entropy = 0.0\nsamples = 2\nvalue = [0, 0, 0, 0, 0, 0, 0, 0, 2, 0, 0, 0, 0, 0\n0, 0, 0, 0, 0, 0, 0, 0, 0, 0, 0, 0, 0]", fillcolor="#39e558"] ;
227 -> 229 ;
230 [label="entropy = 0.0\nsamples = 3\nvalue = [0, 0, 0, 0, 0, 3, 0, 0, 0, 0, 0, 0, 0, 0\n0, 0, 0, 0, 0, 0, 0, 0, 0, 0, 0, 0, 0]", fillcolor="#8ce539"] ;
226 -> 230 ;
231 [label="shell_weight_g <= 0.058\nentropy = 1.0\nsamples = 2\nvalue = [0, 0, 0, 0, 1, 0, 1, 0, 0, 0, 0, 0, 0, 0\n0, 0, 0, 0, 0, 0, 0, 0, 0, 0, 0, 0, 0]", fillcolor="#ffffff"] ;
225 -> 231 ;
232 [label="entropy = 0.0\nsamples = 1\nvalue = [0, 0, 0, 0, 1, 0, 0, 0, 0, 0, 0, 0, 0, 0\n0, 0, 0, 0, 0, 0, 0, 0, 0, 0, 0, 0, 0]", fillcolor="#b1e539"] ;
231 -> 232 ;
233 [label="entropy = 0.0\nsamples = 1\nvalue = [0, 0, 0, 0, 0, 0, 1, 0, 0, 0, 0, 0, 0, 0\n0, 0, 0, 0, 0, 0, 0, 0, 0, 0, 0, 0, 0]", fillcolor="#64e539"] ;
231 -> 233 ;
234 [label="viscera_weight_g <= 0.033\nentropy = 1.892\nsamples = 102\nvalue = [0, 0, 1, 10, 43, 34, 13, 0, 0, 1, 0, 0, 0, 0\n0, 0, 0, 0, 0, 0, 0, 0, 0, 0, 0, 0, 0]", fillcolor="#f5fce5"] ;
198 -> 234 ;
235 [label="shucked_weight_g <= 0.079\nentropy = 1.061\nsamples = 8\nvalue = [0, 0, 0, 0, 6, 0, 1, 0, 0, 1, 0, 0, 0, 0\n0, 0, 0, 0, 0, 0, 0, 0, 0, 0, 0, 0, 0]", fillcolor="#c7ec72"] ;
234 -> 235 ;
236 [label="entropy = 0.0\nsamples = 1\nvalue = [0, 0, 0, 0, 0, 0, 0, 0, 0, 1, 0, 0, 0, 0\n0, 0, 0, 0, 0, 0, 0, 0, 0, 0, 0, 0, 0]", fillcolor="#39e581"] ;
235 -> 236 ;
237 [label="height_mm <= 0.088\nentropy = 0.592\nsamples = 7\nvalue = [0, 0, 0, 0, 6, 0, 1, 0, 0, 0, 0, 0, 0, 0\n0, 0, 0, 0, 0, 0, 0, 0, 0, 0, 0, 0, 0]", fillcolor="#bee95a"] ;
235 -> 237 ;
238 [label="entropy = 0.0\nsamples = 5\nvalue = [0, 0, 0, 0, 5, 0, 0, 0, 0, 0, 0, 0, 0, 0\n0, 0, 0, 0, 0, 0, 0, 0, 0, 0, 0, 0, 0]", fillcolor="#b1e539"] ;
237 -> 238 ;
239 [label="shucked_weight_g <= 0.101\nentropy = 1.0\nsamples = 2\nvalue = [0, 0, 0, 0, 1, 0, 1, 0, 0, 0, 0, 0, 0, 0\n0, 0, 0, 0, 0, 0, 0, 0, 0, 0, 0, 0, 0]", fillcolor="#ffffff"] ;
237 -> 239 ;
240 [label="entropy = 0.0\nsamples = 1\nvalue = [0, 0, 0, 0, 0, 0, 1, 0, 0, 0, 0, 0, 0, 0\n0, 0, 0, 0, 0, 0, 0, 0, 0, 0, 0, 0, 0]", fillcolor="#64e539"] ;
239 -> 240 ;
241 [label="entropy = 0.0\nsamples = 1\nvalue = [0, 0, 0, 0, 1, 0, 0, 0, 0, 0, 0, 0, 0, 0\n0, 0, 0, 0, 0, 0, 0, 0, 0, 0, 0, 0, 0]", fillcolor="#b1e539"] ;
239 -> 241 ;
242 [label="diam_mm <= 0.212\nentropy = 1.853\nsamples = 94\nvalue = [0, 0, 1, 10, 37, 34, 12, 0, 0, 0, 0, 0, 0, 0\n0, 0, 0, 0, 0, 0, 0, 0, 0, 0, 0, 0, 0]", fillcolor="#fbfef5"] ;
234 -> 242 ;
243 [label="entropy = 0.0\nsamples = 2\nvalue = [0, 0, 0, 2, 0, 0, 0, 0, 0, 0, 0, 0, 0, 0\n0, 0, 0, 0, 0, 0, 0, 0, 0, 0, 0, 0, 0]", fillcolor="#d7e539"] ;
242 -> 243 ;
244 [label="shell_weight_g <= 0.061\nentropy = 1.82\nsamples = 92\nvalue = [0, 0, 1, 8, 37, 34, 12, 0, 0, 0, 0, 0, 0, 0\n0, 0, 0, 0, 0, 0, 0, 0, 0, 0, 0, 0, 0]", fillcolor="#fbfef5"] ;
242 -> 244 ;
245 [label="viscera_weight_g <= 0.043\nentropy = 1.754\nsamples = 38\nvalue = [0, 0, 0, 6, 12, 17, 3, 0, 0, 0, 0, 0, 0, 0\n0, 0, 0, 0, 0, 0, 0, 0, 0, 0, 0, 0, 0]", fillcolor="#e9fad9"] ;
244 -> 245 ;
246 [label="whole_weight_g <= 0.195\nentropy = 1.41\nsamples = 23\nvalue = [0, 0, 0, 4, 6, 13, 0, 0, 0, 0, 0, 0, 0, 0\n0, 0, 0, 0, 0, 0, 0, 0, 0, 0, 0, 0, 0]", fillcolor="#d0f4ad"] ;
245 -> 246 ;
247 [label="height_mm <= 0.078\nentropy = 1.485\nsamples = 10\nvalue = [0, 0, 0, 2, 5, 3, 0, 0, 0, 0, 0, 0, 0, 0\n0, 0, 0, 0, 0, 0, 0, 0, 0, 0, 0, 0, 0]", fillcolor="#e9f8c6"] ;
246 -> 247 ;
248 [label="whole_weight_g <= 0.172\nentropy = 0.971\nsamples = 5\nvalue = [0, 0, 0, 0, 2, 3, 0, 0, 0, 0, 0, 0, 0, 0\n0, 0, 0, 0, 0, 0, 0, 0, 0, 0, 0, 0, 0]", fillcolor="#d9f6bd"] ;
247 -> 248 ;
249 [label="entropy = 0.0\nsamples = 1\nvalue = [0, 0, 0, 0, 1, 0, 0, 0, 0, 0, 0, 0, 0, 0\n0, 0, 0, 0, 0, 0, 0, 0, 0, 0, 0, 0, 0]", fillcolor="#b1e539"] ;
248 -> 249 ;
250 [label="viscera_weight_g <= 0.035\nentropy = 0.811\nsamples = 4\nvalue = [0, 0, 0, 0, 1, 3, 0, 0, 0, 0, 0, 0, 0, 0\n0, 0, 0, 0, 0, 0, 0, 0, 0, 0, 0, 0, 0]", fillcolor="#b2ee7b"] ;
248 -> 250 ;
251 [label="entropy = 0.0\nsamples = 1\nvalue = [0, 0, 0, 0, 1, 0, 0, 0, 0, 0, 0, 0, 0, 0\n0, 0, 0, 0, 0, 0, 0, 0, 0, 0, 0, 0, 0]", fillcolor="#b1e539"] ;
250 -> 251 ;
252 [label="entropy = 0.0\nsamples = 3\nvalue = [0, 0, 0, 0, 0, 3, 0, 0, 0, 0, 0, 0, 0, 0\n0, 0, 0, 0, 0, 0, 0, 0, 0, 0, 0, 0, 0]", fillcolor="#8ce539"] ;
250 -> 252 ;
253 [label="shell_weight_g <= 0.056\nentropy = 0.971\nsamples = 5\nvalue = [0, 0, 0, 2, 3, 0, 0, 0, 0, 0, 0, 0, 0, 0\n0, 0, 0, 0, 0, 0, 0, 0, 0, 0, 0, 0, 0]", fillcolor="#e5f6bd"] ;
247 -> 253 ;
254 [label="shucked_weight_g <= 0.089\nentropy = 0.918\nsamples = 3\nvalue = [0, 0, 0, 2, 1, 0, 0, 0, 0, 0, 0, 0, 0, 0\n0, 0, 0, 0, 0, 0, 0, 0, 0, 0, 0, 0, 0]", fillcolor="#ebf29c"] ;
253 -> 254 ;
255 [label="entropy = 0.0\nsamples = 2\nvalue = [0, 0, 0, 2, 0, 0, 0, 0, 0, 0, 0, 0, 0, 0\n0, 0, 0, 0, 0, 0, 0, 0, 0, 0, 0, 0, 0]", fillcolor="#d7e539"] ;
254 -> 255 ;
256 [label="entropy = 0.0\nsamples = 1\nvalue = [0, 0, 0, 0, 1, 0, 0, 0, 0, 0, 0, 0, 0, 0\n0, 0, 0, 0, 0, 0, 0, 0, 0, 0, 0, 0, 0]", fillcolor="#b1e539"] ;
254 -> 256 ;
257 [label="entropy = 0.0\nsamples = 2\nvalue = [0, 0, 0, 0, 2, 0, 0, 0, 0, 0, 0, 0, 0, 0\n0, 0, 0, 0, 0, 0, 0, 0, 0, 0, 0, 0, 0]", fillcolor="#b1e539"] ;
253 -> 257 ;
258 [label="shucked_weight_g <= 0.098\nentropy = 0.991\nsamples = 13\nvalue = [0, 0, 0, 2, 1, 10, 0, 0, 0, 0, 0, 0, 0, 0\n0, 0, 0, 0, 0, 0, 0, 0, 0, 0, 0, 0, 0]", fillcolor="#abec6f"] ;
246 -> 258 ;
259 [label="diam_mm <= 0.282\nentropy = 0.469\nsamples = 10\nvalue = [0, 0, 0, 1, 0, 9, 0, 0, 0, 0, 0, 0, 0, 0\n0, 0, 0, 0, 0, 0, 0, 0, 0, 0, 0, 0, 0]", fillcolor="#99e84f"] ;
258 -> 259 ;
260 [label="entropy = 0.0\nsamples = 9\nvalue = [0, 0, 0, 0, 0, 9, 0, 0, 0, 0, 0, 0, 0, 0\n0, 0, 0, 0, 0, 0, 0, 0, 0, 0, 0, 0, 0]", fillcolor="#8ce539"] ;
259 -> 260 ;
261 [label="entropy = 0.0\nsamples = 1\nvalue = [0, 0, 0, 1, 0, 0, 0, 0, 0, 0, 0, 0, 0, 0\n0, 0, 0, 0, 0, 0, 0, 0, 0, 0, 0, 0, 0]", fillcolor="#d7e539"] ;
259 -> 261 ;
262 [label="diam_mm <= 0.248\nentropy = 1.585\nsamples = 3\nvalue = [0, 0, 0, 1, 1, 1, 0, 0, 0, 0, 0, 0, 0, 0\n0, 0, 0, 0, 0, 0, 0, 0, 0, 0, 0, 0, 0]", fillcolor="#ffffff"] ;
258 -> 262 ;
263 [label="entropy = 0.0\nsamples = 1\nvalue = [0, 0, 0, 0, 1, 0, 0, 0, 0, 0, 0, 0, 0, 0\n0, 0, 0, 0, 0, 0, 0, 0, 0, 0, 0, 0, 0]", fillcolor="#b1e539"] ;
262 -> 263 ;
264 [label="length_mm <= 0.338\nentropy = 1.0\nsamples = 2\nvalue = [0, 0, 0, 1, 0, 1, 0, 0, 0, 0, 0, 0, 0, 0\n0, 0, 0, 0, 0, 0, 0, 0, 0, 0, 0, 0, 0]", fillcolor="#ffffff"] ;
262 -> 264 ;
265 [label="entropy = 0.0\nsamples = 1\nvalue = [0, 0, 0, 0, 0, 1, 0, 0, 0, 0, 0, 0, 0, 0\n0, 0, 0, 0, 0, 0, 0, 0, 0, 0, 0, 0, 0]", fillcolor="#8ce539"] ;
264 -> 265 ;
266 [label="entropy = 0.0\nsamples = 1\nvalue = [0, 0, 0, 1, 0, 0, 0, 0, 0, 0, 0, 0, 0, 0\n0, 0, 0, 0, 0, 0, 0, 0, 0, 0, 0, 0, 0]", fillcolor="#d7e539"] ;
264 -> 266 ;
267 [label="height_mm <= 0.088\nentropy = 1.889\nsamples = 15\nvalue = [0, 0, 0, 2, 6, 4, 3, 0, 0, 0, 0, 0, 0, 0\n0, 0, 0, 0, 0, 0, 0, 0, 0, 0, 0, 0, 0]", fillcolor="#f1fadb"] ;
245 -> 267 ;
268 [label="viscera_weight_g <= 0.048\nentropy = 1.436\nsamples = 9\nvalue = [0, 0, 0, 2, 5, 2, 0, 0, 0, 0, 0, 0, 0, 0\n0, 0, 0, 0, 0, 0, 0, 0, 0, 0, 0, 0, 0]", fillcolor="#def4aa"] ;
267 -> 268 ;
269 [label="whole_weight_g <= 0.195\nentropy = 0.971\nsamples = 5\nvalue = [0, 0, 0, 2, 3, 0, 0, 0, 0, 0, 0, 0, 0, 0\n0, 0, 0, 0, 0, 0, 0, 0, 0, 0, 0, 0, 0]", fillcolor="#e5f6bd"] ;
268 -> 269 ;
270 [label="entropy = 0.0\nsamples = 2\nvalue = [0, 0, 0, 0, 2, 0, 0, 0, 0, 0, 0, 0, 0, 0\n0, 0, 0, 0, 0, 0, 0, 0, 0, 0, 0, 0, 0]", fillcolor="#b1e539"] ;
269 -> 270 ;
271 [label="viscera_weight_g <= 0.044\nentropy = 0.918\nsamples = 3\nvalue = [0, 0, 0, 2, 1, 0, 0, 0, 0, 0, 0, 0, 0, 0\n0, 0, 0, 0, 0, 0, 0, 0, 0, 0, 0, 0, 0]", fillcolor="#ebf29c"] ;
269 -> 271 ;
272 [label="entropy = 0.0\nsamples = 1\nvalue = [0, 0, 0, 0, 1, 0, 0, 0, 0, 0, 0, 0, 0, 0\n0, 0, 0, 0, 0, 0, 0, 0, 0, 0, 0, 0, 0]", fillcolor="#b1e539"] ;
271 -> 272 ;
273 [label="entropy = 0.0\nsamples = 2\nvalue = [0, 0, 0, 2, 0, 0, 0, 0, 0, 0, 0, 0, 0, 0\n0, 0, 0, 0, 0, 0, 0, 0, 0, 0, 0, 0, 0]", fillcolor="#d7e539"] ;
271 -> 273 ;
274 [label="viscera_weight_g <= 0.052\nentropy = 1.0\nsamples = 4\nvalue = [0, 0, 0, 0, 2, 2, 0, 0, 0, 0, 0, 0, 0, 0\n0, 0, 0, 0, 0, 0, 0, 0, 0, 0, 0, 0, 0]", fillcolor="#ffffff"] ;
268 -> 274 ;
275 [label="entropy = 0.0\nsamples = 2\nvalue = [0, 0, 0, 0, 0, 2, 0, 0, 0, 0, 0, 0, 0, 0\n0, 0, 0, 0, 0, 0, 0, 0, 0, 0, 0, 0, 0]", fillcolor="#8ce539"] ;
274 -> 275 ;
276 [label="entropy = 0.0\nsamples = 2\nvalue = [0, 0, 0, 0, 2, 0, 0, 0, 0, 0, 0, 0, 0, 0\n0, 0, 0, 0, 0, 0, 0, 0, 0, 0, 0, 0, 0]", fillcolor="#b1e539"] ;
274 -> 276 ;
277 [label="length_mm <= 0.363\nentropy = 1.459\nsamples = 6\nvalue = [0, 0, 0, 0, 1, 2, 3, 0, 0, 0, 0, 0, 0, 0\n0, 0, 0, 0, 0, 0, 0, 0, 0, 0, 0, 0, 0]", fillcolor="#d8f8ce"] ;
267 -> 277 ;
278 [label="entropy = 0.0\nsamples = 3\nvalue = [0, 0, 0, 0, 0, 0, 3, 0, 0, 0, 0, 0, 0, 0\n0, 0, 0, 0, 0, 0, 0, 0, 0, 0, 0, 0, 0]", fillcolor="#64e539"] ;
277 -> 278 ;
279 [label="viscera_weight_g <= 0.059\nentropy = 0.918\nsamples = 3\nvalue = [0, 0, 0, 0, 1, 2, 0, 0, 0, 0, 0, 0, 0, 0\n0, 0, 0, 0, 0, 0, 0, 0, 0, 0, 0, 0, 0]", fillcolor="#c6f29c"] ;
277 -> 279 ;
280 [label="entropy = 0.0\nsamples = 2\nvalue = [0, 0, 0, 0, 0, 2, 0, 0, 0, 0, 0, 0, 0, 0\n0, 0, 0, 0, 0, 0, 0, 0, 0, 0, 0, 0, 0]", fillcolor="#8ce539"] ;
279 -> 280 ;
281 [label="entropy = 0.0\nsamples = 1\nvalue = [0, 0, 0, 0, 1, 0, 0, 0, 0, 0, 0, 0, 0, 0\n0, 0, 0, 0, 0, 0, 0, 0, 0, 0, 0, 0, 0]", fillcolor="#b1e539"] ;
279 -> 281 ;
282 [label="shucked_weight_g <= 0.089\nentropy = 1.753\nsamples = 54\nvalue = [0, 0, 1, 2, 25, 17, 9, 0, 0, 0, 0, 0, 0, 0\n0, 0, 0, 0, 0, 0, 0, 0, 0, 0, 0, 0, 0]", fillcolor="#eef9d4"] ;
244 -> 282 ;
283 [label="whole_weight_g <= 0.188\nentropy = 1.788\nsamples = 14\nvalue = [0, 0, 1, 0, 3, 6, 4, 0, 0, 0, 0, 0, 0, 0\n0, 0, 0, 0, 0, 0, 0, 0, 0, 0, 0, 0, 0]", fillcolor="#e8fad7"] ;
282 -> 283 ;
284 [label="entropy = 0.0\nsamples = 2\nvalue = [0, 0, 0, 0, 2, 0, 0, 0, 0, 0, 0, 0, 0, 0\n0, 0, 0, 0, 0, 0, 0, 0, 0, 0, 0, 0, 0]", fillcolor="#b1e539"] ;
283 -> 284 ;
285 [label="shucked_weight_g <= 0.076\nentropy = 1.626\nsamples = 12\nvalue = [0, 0, 1, 0, 1, 6, 4, 0, 0, 0, 0, 0, 0, 0\n0, 0, 0, 0, 0, 0, 0, 0, 0, 0, 0, 0, 0]", fillcolor="#e2f8ce"] ;
283 -> 285 ;
286 [label="entropy = 0.0\nsamples = 1\nvalue = [0, 0, 0, 0, 1, 0, 0, 0, 0, 0, 0, 0, 0, 0\n0, 0, 0, 0, 0, 0, 0, 0, 0, 0, 0, 0, 0]", fillcolor="#b1e539"] ;
285 -> 286 ;
287 [label="viscera_weight_g <= 0.035\nentropy = 1.322\nsamples = 11\nvalue = [0, 0, 1, 0, 0, 6, 4, 0, 0, 0, 0, 0, 0, 0\n0, 0, 0, 0, 0, 0, 0, 0, 0, 0, 0, 0, 0]", fillcolor="#def8c6"] ;
285 -> 287 ;
288 [label="entropy = 0.0\nsamples = 1\nvalue = [0, 0, 1, 0, 0, 0, 0, 0, 0, 0, 0, 0, 0, 0\n0, 0, 0, 0, 0, 0, 0, 0, 0, 0, 0, 0, 0]", fillcolor="#e5cb39"] ;
287 -> 288 ;
289 [label="whole_weight_g <= 0.212\nentropy = 0.971\nsamples = 10\nvalue = [0, 0, 0, 0, 0, 6, 4, 0, 0, 0, 0, 0, 0, 0\n0, 0, 0, 0, 0, 0, 0, 0, 0, 0, 0, 0, 0]", fillcolor="#d9f6bd"] ;
287 -> 289 ;
290 [label="shucked_weight_g <= 0.078\nentropy = 0.985\nsamples = 7\nvalue = [0, 0, 0, 0, 0, 3, 4, 0, 0, 0, 0, 0, 0, 0\n0, 0, 0, 0, 0, 0, 0, 0, 0, 0, 0, 0, 0]", fillcolor="#d8f8ce"] ;
289 -> 290 ;
291 [label="entropy = 0.0\nsamples = 2\nvalue = [0, 0, 0, 0, 0, 2, 0, 0, 0, 0, 0, 0, 0, 0\n0, 0, 0, 0, 0, 0, 0, 0, 0, 0, 0, 0, 0]", fillcolor="#8ce539"] ;
290 -> 291 ;
292 [label="shell_weight_g <= 0.063\nentropy = 0.722\nsamples = 5\nvalue = [0, 0, 0, 0, 0, 1, 4, 0, 0, 0, 0, 0, 0, 0\n0, 0, 0, 0, 0, 0, 0, 0, 0, 0, 0, 0, 0]", fillcolor="#8bec6a"] ;
290 -> 292 ;
293 [label="entropy = 0.0\nsamples = 1\nvalue = [0, 0, 0, 0, 0, 1, 0, 0, 0, 0, 0, 0, 0, 0\n0, 0, 0, 0, 0, 0, 0, 0, 0, 0, 0, 0, 0]", fillcolor="#8ce539"] ;
292 -> 293 ;
294 [label="entropy = 0.0\nsamples = 4\nvalue = [0, 0, 0, 0, 0, 0, 4, 0, 0, 0, 0, 0, 0, 0\n0, 0, 0, 0, 0, 0, 0, 0, 0, 0, 0, 0, 0]", fillcolor="#64e539"] ;
292 -> 294 ;
295 [label="entropy = 0.0\nsamples = 3\nvalue = [0, 0, 0, 0, 0, 3, 0, 0, 0, 0, 0, 0, 0, 0\n0, 0, 0, 0, 0, 0, 0, 0, 0, 0, 0, 0, 0]", fillcolor="#8ce539"] ;
289 -> 295 ;
296 [label="shell_weight_g <= 0.067\nentropy = 1.578\nsamples = 40\nvalue = [0, 0, 0, 2, 22, 11, 5, 0, 0, 0, 0, 0, 0, 0\n0, 0, 0, 0, 0, 0, 0, 0, 0, 0, 0, 0, 0]", fillcolor="#e1f5b4"] ;
282 -> 296 ;
297 [label="whole_weight_g <= 0.219\nentropy = 0.9\nsamples = 19\nvalue = [0, 0, 0, 0, 13, 6, 0, 0, 0, 0, 0, 0, 0, 0\n0, 0, 0, 0, 0, 0, 0, 0, 0, 0, 0, 0, 0]", fillcolor="#d5f194"] ;
296 -> 297 ;
298 [label="entropy = 0.0\nsamples = 8\nvalue = [0, 0, 0, 0, 8, 0, 0, 0, 0, 0, 0, 0, 0, 0\n0, 0, 0, 0, 0, 0, 0, 0, 0, 0, 0, 0, 0]", fillcolor="#b1e539"] ;
297 -> 298 ;
299 [label="length_mm <= 0.368\nentropy = 0.994\nsamples = 11\nvalue = [0, 0, 0, 0, 5, 6, 0, 0, 0, 0, 0, 0, 0, 0\n0, 0, 0, 0, 0, 0, 0, 0, 0, 0, 0, 0, 0]", fillcolor="#ecfbde"] ;
297 -> 299 ;
300 [label="entropy = 0.0\nsamples = 5\nvalue = [0, 0, 0, 0, 0, 5, 0, 0, 0, 0, 0, 0, 0, 0\n0, 0, 0, 0, 0, 0, 0, 0, 0, 0, 0, 0, 0]", fillcolor="#8ce539"] ;
299 -> 300 ;
301 [label="shucked_weight_g <= 0.095\nentropy = 0.65\nsamples = 6\nvalue = [0, 0, 0, 0, 5, 1, 0, 0, 0, 0, 0, 0, 0, 0\n0, 0, 0, 0, 0, 0, 0, 0, 0, 0, 0, 0, 0]", fillcolor="#c1ea61"] ;
299 -> 301 ;
302 [label="entropy = 0.0\nsamples = 1\nvalue = [0, 0, 0, 0, 0, 1, 0, 0, 0, 0, 0, 0, 0, 0\n0, 0, 0, 0, 0, 0, 0, 0, 0, 0, 0, 0, 0]", fillcolor="#8ce539"] ;
301 -> 302 ;
303 [label="entropy = 0.0\nsamples = 5\nvalue = [0, 0, 0, 0, 5, 0, 0, 0, 0, 0, 0, 0, 0, 0\n0, 0, 0, 0, 0, 0, 0, 0, 0, 0, 0, 0, 0]", fillcolor="#b1e539"] ;
301 -> 303 ;
304 [label="whole_weight_g <= 0.256\nentropy = 1.833\nsamples = 21\nvalue = [0, 0, 0, 2, 9, 5, 5, 0, 0, 0, 0, 0, 0, 0\n0, 0, 0, 0, 0, 0, 0, 0, 0, 0, 0, 0, 0]", fillcolor="#ecf8ce"] ;
296 -> 304 ;
305 [label="whole_weight_g <= 0.248\nentropy = 1.718\nsamples = 18\nvalue = [0, 0, 0, 2, 9, 2, 5, 0, 0, 0, 0, 0, 0, 0\n0, 0, 0, 0, 0, 0, 0, 0, 0, 0, 0, 0, 0]", fillcolor="#e7f7c2"] ;
304 -> 305 ;
306 [label="whole_weight_g <= 0.239\nentropy = 1.863\nsamples = 14\nvalue = [0, 0, 0, 2, 5, 2, 5, 0, 0, 0, 0, 0, 0, 0\n0, 0, 0, 0, 0, 0, 0, 0, 0, 0, 0, 0, 0]", fillcolor="#ffffff"] ;
305 -> 306 ;
307 [label="shell_weight_g <= 0.069\nentropy = 1.485\nsamples = 10\nvalue = [0, 0, 0, 0, 5, 2, 3, 0, 0, 0, 0, 0, 0, 0\n0, 0, 0, 0, 0, 0, 0, 0, 0, 0, 0, 0, 0]", fillcolor="#e9f8c6"] ;
306 -> 307 ;
308 [label="entropy = 0.0\nsamples = 2\nvalue = [0, 0, 0, 0, 0, 0, 2, 0, 0, 0, 0, 0, 0, 0\n0, 0, 0, 0, 0, 0, 0, 0, 0, 0, 0, 0, 0]", fillcolor="#64e539"] ;
307 -> 308 ;
309 [label="viscera_weight_g <= 0.059\nentropy = 1.299\nsamples = 8\nvalue = [0, 0, 0, 0, 5, 2, 1, 0, 0, 0, 0, 0, 0, 0\n0, 0, 0, 0, 0, 0, 0, 0, 0, 0, 0, 0, 0]", fillcolor="#d8f29c"] ;
307 -> 309 ;
310 [label="diam_mm <= 0.287\nentropy = 0.65\nsamples = 6\nvalue = [0, 0, 0, 0, 5, 1, 0, 0, 0, 0, 0, 0, 0, 0\n0, 0, 0, 0, 0, 0, 0, 0, 0, 0, 0, 0, 0]", fillcolor="#c1ea61"] ;
309 -> 310 ;
311 [label="entropy = 0.0\nsamples = 5\nvalue = [0, 0, 0, 0, 5, 0, 0, 0, 0, 0, 0, 0, 0, 0\n0, 0, 0, 0, 0, 0, 0, 0, 0, 0, 0, 0, 0]", fillcolor="#b1e539"] ;
310 -> 311 ;
312 [label="entropy = 0.0\nsamples = 1\nvalue = [0, 0, 0, 0, 0, 1, 0, 0, 0, 0, 0, 0, 0, 0\n0, 0, 0, 0, 0, 0, 0, 0, 0, 0, 0, 0, 0]", fillcolor="#8ce539"] ;
310 -> 312 ;
313 [label="shucked_weight_g <= 0.093\nentropy = 1.0\nsamples = 2\nvalue = [0, 0, 0, 0, 0, 1, 1, 0, 0, 0, 0, 0, 0, 0\n0, 0, 0, 0, 0, 0, 0, 0, 0, 0, 0, 0, 0]", fillcolor="#ffffff"] ;
309 -> 313 ;
314 [label="entropy = 0.0\nsamples = 1\nvalue = [0, 0, 0, 0, 0, 0, 1, 0, 0, 0, 0, 0, 0, 0\n0, 0, 0, 0, 0, 0, 0, 0, 0, 0, 0, 0, 0]", fillcolor="#64e539"] ;
313 -> 314 ;
315 [label="entropy = 0.0\nsamples = 1\nvalue = [0, 0, 0, 0, 0, 1, 0, 0, 0, 0, 0, 0, 0, 0\n0, 0, 0, 0, 0, 0, 0, 0, 0, 0, 0, 0, 0]", fillcolor="#8ce539"] ;
313 -> 315 ;
316 [label="length_mm <= 0.373\nentropy = 1.0\nsamples = 4\nvalue = [0, 0, 0, 2, 0, 0, 2, 0, 0, 0, 0, 0, 0, 0\n0, 0, 0, 0, 0, 0, 0, 0, 0, 0, 0, 0, 0]", fillcolor="#ffffff"] ;
306 -> 316 ;
317 [label="entropy = 0.0\nsamples = 1\nvalue = [0, 0, 0, 1, 0, 0, 0, 0, 0, 0, 0, 0, 0, 0\n0, 0, 0, 0, 0, 0, 0, 0, 0, 0, 0, 0, 0]", fillcolor="#d7e539"] ;
316 -> 317 ;
318 [label="diam_mm <= 0.293\nentropy = 0.918\nsamples = 3\nvalue = [0, 0, 0, 1, 0, 0, 2, 0, 0, 0, 0, 0, 0, 0\n0, 0, 0, 0, 0, 0, 0, 0, 0, 0, 0, 0, 0]", fillcolor="#b2f29c"] ;
316 -> 318 ;
319 [label="entropy = 0.0\nsamples = 2\nvalue = [0, 0, 0, 0, 0, 0, 2, 0, 0, 0, 0, 0, 0, 0\n0, 0, 0, 0, 0, 0, 0, 0, 0, 0, 0, 0, 0]", fillcolor="#64e539"] ;
318 -> 319 ;
320 [label="entropy = 0.0\nsamples = 1\nvalue = [0, 0, 0, 1, 0, 0, 0, 0, 0, 0, 0, 0, 0, 0\n0, 0, 0, 0, 0, 0, 0, 0, 0, 0, 0, 0, 0]", fillcolor="#d7e539"] ;
318 -> 320 ;
321 [label="entropy = 0.0\nsamples = 4\nvalue = [0, 0, 0, 0, 4, 0, 0, 0, 0, 0, 0, 0, 0, 0\n0, 0, 0, 0, 0, 0, 0, 0, 0, 0, 0, 0, 0]", fillcolor="#b1e539"] ;
305 -> 321 ;
322 [label="entropy = 0.0\nsamples = 3\nvalue = [0, 0, 0, 0, 0, 3, 0, 0, 0, 0, 0, 0, 0, 0\n0, 0, 0, 0, 0, 0, 0, 0, 0, 0, 0, 0, 0]", fillcolor="#8ce539"] ;
304 -> 322 ;
323 [label="shucked_weight_g <= 0.154\nentropy = 2.468\nsamples = 274\nvalue = [0, 0, 0, 6, 68, 94, 53, 21, 17, 7, 4, 2, 2\n0, 0, 0, 0, 0, 0, 0, 0, 0, 0, 0, 0, 0, 0]", fillcolor="#f0fce6"] ;
197 -> 323 ;
324 [label="whole_weight_g <= 0.343\nentropy = 2.617\nsamples = 159\nvalue = [0, 0, 0, 4, 32, 48, 34, 14, 17, 4, 3, 2, 1\n0, 0, 0, 0, 0, 0, 0, 0, 0, 0, 0, 0, 0, 0]", fillcolor="#f2fce9"] ;
323 -> 324 ;
325 [label="length_mm <= 0.387\nentropy = 2.533\nsamples = 146\nvalue = [0, 0, 0, 4, 32, 46, 32, 10, 15, 2, 2, 2, 1\n0, 0, 0, 0, 0, 0, 0, 0, 0, 0, 0, 0, 0, 0]", fillcolor="#f1fce7"] ;
324 -> 325 ;
326 [label="shell_weight_g <= 0.089\nentropy = 2.539\nsamples = 63\nvalue = [0, 0, 0, 0, 14, 18, 9, 7, 11, 1, 2, 0, 1, 0\n0, 0, 0, 0, 0, 0, 0, 0, 0, 0, 0, 0, 0]", fillcolor="#f6fdef"] ;
325 -> 326 ;
327 [label="shell_weight_g <= 0.084\nentropy = 2.446\nsamples = 53\nvalue = [0, 0, 0, 0, 14, 13, 7, 7, 10, 1, 1, 0, 0, 0\n0, 0, 0, 0, 0, 0, 0, 0, 0, 0, 0, 0, 0]", fillcolor="#fdfefa"] ;
326 -> 327 ;
328 [label="whole_weight_g <= 0.221\nentropy = 2.369\nsamples = 43\nvalue = [0, 0, 0, 0, 9, 13, 7, 7, 6, 0, 1, 0, 0, 0\n0, 0, 0, 0, 0, 0, 0, 0, 0, 0, 0, 0, 0]", fillcolor="#f1fce8"] ;
327 -> 328 ;
329 [label="length_mm <= 0.365\nentropy = 1.557\nsamples = 7\nvalue = [0, 0, 0, 0, 2, 0, 0, 2, 3, 0, 0, 0, 0, 0\n0, 0, 0, 0, 0, 0, 0, 0, 0, 0, 0, 0, 0]", fillcolor="#d7fade"] ;
328 -> 329 ;
330 [label="viscera_weight_g <= 0.044\nentropy = 0.971\nsamples = 5\nvalue = [0, 0, 0, 0, 0, 0, 0, 2, 3, 0, 0, 0, 0, 0\n0, 0, 0, 0, 0, 0, 0, 0, 0, 0, 0, 0, 0]", fillcolor="#bdf6c7"] ;
329 -> 330 ;
331 [label="entropy = 0.0\nsamples = 3\nvalue = [0, 0, 0, 0, 0, 0, 0, 0, 3, 0, 0, 0, 0, 0\n0, 0, 0, 0, 0, 0, 0, 0, 0, 0, 0, 0, 0]", fillcolor="#39e558"] ;
330 -> 331 ;
332 [label="entropy = 0.0\nsamples = 2\nvalue = [0, 0, 0, 0, 0, 0, 0, 2, 0, 0, 0, 0, 0, 0\n0, 0, 0, 0, 0, 0, 0, 0, 0, 0, 0, 0, 0]", fillcolor="#3fe539"] ;
330 -> 332 ;
333 [label="entropy = 0.0\nsamples = 2\nvalue = [0, 0, 0, 0, 2, 0, 0, 0, 0, 0, 0, 0, 0, 0\n0, 0, 0, 0, 0, 0, 0, 0, 0, 0, 0, 0, 0]", fillcolor="#b1e539"] ;
329 -> 333 ;
334 [label="height_mm <= 0.102\nentropy = 2.287\nsamples = 36\nvalue = [0, 0, 0, 0, 7, 13, 7, 5, 3, 0, 1, 0, 0, 0\n0, 0, 0, 0, 0, 0, 0, 0, 0, 0, 0, 0, 0]", fillcolor="#e7fad6"] ;
328 -> 334 ;
335 [label="height_mm <= 0.093\nentropy = 1.957\nsamples = 25\nvalue = [0, 0, 0, 0, 5, 11, 6, 2, 0, 0, 1, 0, 0, 0\n0, 0, 0, 0, 0, 0, 0, 0, 0, 0, 0, 0, 0]", fillcolor="#e1f8cb"] ;
334 -> 335 ;
336 [label="length_mm <= 0.382\nentropy = 1.241\nsamples = 11\nvalue = [0, 0, 0, 0, 0, 7, 3, 1, 0, 0, 0, 0, 0, 0\n0, 0, 0, 0, 0, 0, 0, 0, 0, 0, 0, 0, 0]", fillcolor="#c6f29c"] ;
335 -> 336 ;
337 [label="entropy = 0.0\nsamples = 6\nvalue = [0, 0, 0, 0, 0, 6, 0, 0, 0, 0, 0, 0, 0, 0\n0, 0, 0, 0, 0, 0, 0, 0, 0, 0, 0, 0, 0]", fillcolor="#8ce539"] ;
336 -> 337 ;
338 [label="viscera_weight_g <= 0.05\nentropy = 1.371\nsamples = 5\nvalue = [0, 0, 0, 0, 0, 1, 3, 1, 0, 0, 0, 0, 0, 0\n0, 0, 0, 0, 0, 0, 0, 0, 0, 0, 0, 0, 0]", fillcolor="#b2f29c"] ;
336 -> 338 ;
339 [label="entropy = 0.0\nsamples = 1\nvalue = [0, 0, 0, 0, 0, 1, 0, 0, 0, 0, 0, 0, 0, 0\n0, 0, 0, 0, 0, 0, 0, 0, 0, 0, 0, 0, 0]", fillcolor="#8ce539"] ;
338 -> 339 ;
340 [label="shell_weight_g <= 0.075\nentropy = 0.811\nsamples = 4\nvalue = [0, 0, 0, 0, 0, 0, 3, 1, 0, 0, 0, 0, 0, 0\n0, 0, 0, 0, 0, 0, 0, 0, 0, 0, 0, 0, 0]", fillcolor="#98ee7b"] ;
338 -> 340 ;
341 [label="entropy = 0.0\nsamples = 1\nvalue = [0, 0, 0, 0, 0, 0, 0, 1, 0, 0, 0, 0, 0, 0\n0, 0, 0, 0, 0, 0, 0, 0, 0, 0, 0, 0, 0]", fillcolor="#3fe539"] ;
340 -> 341 ;
342 [label="entropy = 0.0\nsamples = 3\nvalue = [0, 0, 0, 0, 0, 0, 3, 0, 0, 0, 0, 0, 0, 0\n0, 0, 0, 0, 0, 0, 0, 0, 0, 0, 0, 0, 0]", fillcolor="#64e539"] ;
340 -> 342 ;
343 [label="shucked_weight_g <= 0.114\nentropy = 2.067\nsamples = 14\nvalue = [0, 0, 0, 0, 5, 4, 3, 1, 0, 0, 1, 0, 0, 0\n0, 0, 0, 0, 0, 0, 0, 0, 0, 0, 0, 0, 0]", fillcolor="#f7fceb"] ;
335 -> 343 ;
344 [label="whole_weight_g <= 0.23\nentropy = 1.379\nsamples = 7\nvalue = [0, 0, 0, 0, 4, 0, 2, 1, 0, 0, 0, 0, 0, 0\n0, 0, 0, 0, 0, 0, 0, 0, 0, 0, 0, 0, 0]", fillcolor="#e0f5b0"] ;
343 -> 344 ;
345 [label="entropy = 0.0\nsamples = 2\nvalue = [0, 0, 0, 0, 0, 0, 2, 0, 0, 0, 0, 0, 0, 0\n0, 0, 0, 0, 0, 0, 0, 0, 0, 0, 0, 0, 0]", fillcolor="#64e539"] ;
344 -> 345 ;
346 [label="length_mm <= 0.368\nentropy = 0.722\nsamples = 5\nvalue = [0, 0, 0, 0, 4, 0, 0, 1, 0, 0, 0, 0, 0, 0\n0, 0, 0, 0, 0, 0, 0, 0, 0, 0, 0, 0, 0]", fillcolor="#c4ec6a"] ;
344 -> 346 ;
347 [label="entropy = 0.0\nsamples = 1\nvalue = [0, 0, 0, 0, 0, 0, 0, 1, 0, 0, 0, 0, 0, 0\n0, 0, 0, 0, 0, 0, 0, 0, 0, 0, 0, 0, 0]", fillcolor="#3fe539"] ;
346 -> 347 ;
348 [label="entropy = 0.0\nsamples = 4\nvalue = [0, 0, 0, 0, 4, 0, 0, 0, 0, 0, 0, 0, 0, 0\n0, 0, 0, 0, 0, 0, 0, 0, 0, 0, 0, 0, 0]", fillcolor="#b1e539"] ;
346 -> 348 ;
349 [label="shell_weight_g <= 0.073\nentropy = 1.664\nsamples = 7\nvalue = [0, 0, 0, 0, 1, 4, 1, 0, 0, 0, 1, 0, 0, 0\n0, 0, 0, 0, 0, 0, 0, 0, 0, 0, 0, 0, 0]", fillcolor="#c6f29c"] ;
343 -> 349 ;
350 [label="whole_weight_g <= 0.266\nentropy = 1.0\nsamples = 2\nvalue = [0, 0, 0, 0, 0, 0, 1, 0, 0, 0, 1, 0, 0, 0\n0, 0, 0, 0, 0, 0, 0, 0, 0, 0, 0, 0, 0]", fillcolor="#ffffff"] ;
349 -> 350 ;
351 [label="entropy = 0.0\nsamples = 1\nvalue = [0, 0, 0, 0, 0, 0, 0, 0, 0, 0, 1, 0, 0, 0\n0, 0, 0, 0, 0, 0, 0, 0, 0, 0, 0, 0, 0]", fillcolor="#39e5a6"] ;
350 -> 351 ;
352 [label="entropy = 0.0\nsamples = 1\nvalue = [0, 0, 0, 0, 0, 0, 1, 0, 0, 0, 0, 0, 0, 0\n0, 0, 0, 0, 0, 0, 0, 0, 0, 0, 0, 0, 0]", fillcolor="#64e539"] ;
350 -> 352 ;
353 [label="length_mm <= 0.373\nentropy = 0.722\nsamples = 5\nvalue = [0, 0, 0, 0, 1, 4, 0, 0, 0, 0, 0, 0, 0, 0\n0, 0, 0, 0, 0, 0, 0, 0, 0, 0, 0, 0, 0]", fillcolor="#a9ec6a"] ;
349 -> 353 ;
354 [label="entropy = 0.0\nsamples = 3\nvalue = [0, 0, 0, 0, 0, 3, 0, 0, 0, 0, 0, 0, 0, 0\n0, 0, 0, 0, 0, 0, 0, 0, 0, 0, 0, 0, 0]", fillcolor="#8ce539"] ;
353 -> 354 ;
355 [label="whole_weight_g <= 0.295\nentropy = 1.0\nsamples = 2\nvalue = [0, 0, 0, 0, 1, 1, 0, 0, 0, 0, 0, 0, 0, 0\n0, 0, 0, 0, 0, 0, 0, 0, 0, 0, 0, 0, 0]", fillcolor="#ffffff"] ;
353 -> 355 ;
356 [label="entropy = 0.0\nsamples = 1\nvalue = [0, 0, 0, 0, 1, 0, 0, 0, 0, 0, 0, 0, 0, 0\n0, 0, 0, 0, 0, 0, 0, 0, 0, 0, 0, 0, 0]", fillcolor="#b1e539"] ;
355 -> 356 ;
357 [label="entropy = 0.0\nsamples = 1\nvalue = [0, 0, 0, 0, 0, 1, 0, 0, 0, 0, 0, 0, 0, 0\n0, 0, 0, 0, 0, 0, 0, 0, 0, 0, 0, 0, 0]", fillcolor="#8ce539"] ;
355 -> 357 ;
358 [label="shucked_weight_g <= 0.109\nentropy = 2.231\nsamples = 11\nvalue = [0, 0, 0, 0, 2, 2, 1, 3, 3, 0, 0, 0, 0, 0\n0, 0, 0, 0, 0, 0, 0, 0, 0, 0, 0, 0, 0]", fillcolor="#ffffff"] ;
334 -> 358 ;
359 [label="length_mm <= 0.368\nentropy = 0.918\nsamples = 3\nvalue = [0, 0, 0, 0, 0, 2, 0, 0, 1, 0, 0, 0, 0, 0\n0, 0, 0, 0, 0, 0, 0, 0, 0, 0, 0, 0, 0]", fillcolor="#c6f29c"] ;
358 -> 359 ;
360 [label="entropy = 0.0\nsamples = 2\nvalue = [0, 0, 0, 0, 0, 2, 0, 0, 0, 0, 0, 0, 0, 0\n0, 0, 0, 0, 0, 0, 0, 0, 0, 0, 0, 0, 0]", fillcolor="#8ce539"] ;
359 -> 360 ;
361 [label="entropy = 0.0\nsamples = 1\nvalue = [0, 0, 0, 0, 0, 0, 0, 0, 1, 0, 0, 0, 0, 0\n0, 0, 0, 0, 0, 0, 0, 0, 0, 0, 0, 0, 0]", fillcolor="#39e558"] ;
359 -> 361 ;
362 [label="length_mm <= 0.382\nentropy = 1.906\nsamples = 8\nvalue = [0, 0, 0, 0, 2, 0, 1, 3, 2, 0, 0, 0, 0, 0\n0, 0, 0, 0, 0, 0, 0, 0, 0, 0, 0, 0, 0]", fillcolor="#dffbde"] ;
358 -> 362 ;
363 [label="height_mm <= 0.128\nentropy = 1.459\nsamples = 6\nvalue = [0, 0, 0, 0, 2, 0, 1, 3, 0, 0, 0, 0, 0, 0\n0, 0, 0, 0, 0, 0, 0, 0, 0, 0, 0, 0, 0]", fillcolor="#cff8ce"] ;
362 -> 363 ;
364 [label="diam_mm <= 0.28\nentropy = 0.971\nsamples = 5\nvalue = [0, 0, 0, 0, 2, 0, 0, 3, 0, 0, 0, 0, 0, 0\n0, 0, 0, 0, 0, 0, 0, 0, 0, 0, 0, 0, 0]", fillcolor="#bff6bd"] ;
363 -> 364 ;
365 [label="shell_weight_g <= 0.074\nentropy = 0.918\nsamples = 3\nvalue = [0, 0, 0, 0, 2, 0, 0, 1, 0, 0, 0, 0, 0, 0\n0, 0, 0, 0, 0, 0, 0, 0, 0, 0, 0, 0, 0]", fillcolor="#d8f29c"] ;
364 -> 365 ;
366 [label="entropy = 0.0\nsamples = 1\nvalue = [0, 0, 0, 0, 0, 0, 0, 1, 0, 0, 0, 0, 0, 0\n0, 0, 0, 0, 0, 0, 0, 0, 0, 0, 0, 0, 0]", fillcolor="#3fe539"] ;
365 -> 366 ;
367 [label="entropy = 0.0\nsamples = 2\nvalue = [0, 0, 0, 0, 2, 0, 0, 0, 0, 0, 0, 0, 0, 0\n0, 0, 0, 0, 0, 0, 0, 0, 0, 0, 0, 0, 0]", fillcolor="#b1e539"] ;
365 -> 367 ;
368 [label="entropy = 0.0\nsamples = 2\nvalue = [0, 0, 0, 0, 0, 0, 0, 2, 0, 0, 0, 0, 0, 0\n0, 0, 0, 0, 0, 0, 0, 0, 0, 0, 0, 0, 0]", fillcolor="#3fe539"] ;
364 -> 368 ;
369 [label="entropy = 0.0\nsamples = 1\nvalue = [0, 0, 0, 0, 0, 0, 1, 0, 0, 0, 0, 0, 0, 0\n0, 0, 0, 0, 0, 0, 0, 0, 0, 0, 0, 0, 0]", fillcolor="#64e539"] ;
363 -> 369 ;
370 [label="entropy = 0.0\nsamples = 2\nvalue = [0, 0, 0, 0, 0, 0, 0, 0, 2, 0, 0, 0, 0, 0\n0, 0, 0, 0, 0, 0, 0, 0, 0, 0, 0, 0, 0]", fillcolor="#39e558"] ;
362 -> 370 ;
371 [label="shucked_weight_g <= 0.1\nentropy = 1.361\nsamples = 10\nvalue = [0, 0, 0, 0, 5, 0, 0, 0, 4, 1, 0, 0, 0, 0\n0, 0, 0, 0, 0, 0, 0, 0, 0, 0, 0, 0, 0]", fillcolor="#f2fbde"] ;
327 -> 371 ;
372 [label="length_mm <= 0.358\nentropy = 0.811\nsamples = 4\nvalue = [0, 0, 0, 0, 0, 0, 0, 0, 3, 1, 0, 0, 0, 0\n0, 0, 0, 0, 0, 0, 0, 0, 0, 0, 0, 0, 0]", fillcolor="#7bee90"] ;
371 -> 372 ;
373 [label="entropy = 0.0\nsamples = 1\nvalue = [0, 0, 0, 0, 0, 0, 0, 0, 0, 1, 0, 0, 0, 0\n0, 0, 0, 0, 0, 0, 0, 0, 0, 0, 0, 0, 0]", fillcolor="#39e581"] ;
372 -> 373 ;
374 [label="entropy = 0.0\nsamples = 3\nvalue = [0, 0, 0, 0, 0, 0, 0, 0, 3, 0, 0, 0, 0, 0\n0, 0, 0, 0, 0, 0, 0, 0, 0, 0, 0, 0, 0]", fillcolor="#39e558"] ;
372 -> 374 ;
375 [label="viscera_weight_g <= 0.056\nentropy = 0.65\nsamples = 6\nvalue = [0, 0, 0, 0, 5, 0, 0, 0, 1, 0, 0, 0, 0, 0\n0, 0, 0, 0, 0, 0, 0, 0, 0, 0, 0, 0, 0]", fillcolor="#c1ea61"] ;
371 -> 375 ;
376 [label="viscera_weight_g <= 0.044\nentropy = 1.0\nsamples = 2\nvalue = [0, 0, 0, 0, 1, 0, 0, 0, 1, 0, 0, 0, 0, 0\n0, 0, 0, 0, 0, 0, 0, 0, 0, 0, 0, 0, 0]", fillcolor="#ffffff"] ;
375 -> 376 ;
377 [label="entropy = 0.0\nsamples = 1\nvalue = [0, 0, 0, 0, 1, 0, 0, 0, 0, 0, 0, 0, 0, 0\n0, 0, 0, 0, 0, 0, 0, 0, 0, 0, 0, 0, 0]", fillcolor="#b1e539"] ;
376 -> 377 ;
378 [label="entropy = 0.0\nsamples = 1\nvalue = [0, 0, 0, 0, 0, 0, 0, 0, 1, 0, 0, 0, 0, 0\n0, 0, 0, 0, 0, 0, 0, 0, 0, 0, 0, 0, 0]", fillcolor="#39e558"] ;
376 -> 378 ;
379 [label="entropy = 0.0\nsamples = 4\nvalue = [0, 0, 0, 0, 4, 0, 0, 0, 0, 0, 0, 0, 0, 0\n0, 0, 0, 0, 0, 0, 0, 0, 0, 0, 0, 0, 0]", fillcolor="#b1e539"] ;
375 -> 379 ;
380 [label="whole_weight_g <= 0.285\nentropy = 1.961\nsamples = 10\nvalue = [0, 0, 0, 0, 0, 5, 2, 0, 1, 0, 1, 0, 1, 0\n0, 0, 0, 0, 0, 0, 0, 0, 0, 0, 0, 0, 0]", fillcolor="#d4f5b5"] ;
326 -> 380 ;
381 [label="length_mm <= 0.377\nentropy = 1.922\nsamples = 5\nvalue = [0, 0, 0, 0, 0, 1, 2, 0, 0, 0, 1, 0, 1, 0\n0, 0, 0, 0, 0, 0, 0, 0, 0, 0, 0, 0, 0]", fillcolor="#d8f8ce"] ;
380 -> 381 ;
382 [label="whole_weight_g <= 0.221\nentropy = 0.918\nsamples = 3\nvalue = [0, 0, 0, 0, 0, 1, 2, 0, 0, 0, 0, 0, 0, 0\n0, 0, 0, 0, 0, 0, 0, 0, 0, 0, 0, 0, 0]", fillcolor="#b2f29c"] ;
381 -> 382 ;
383 [label="entropy = 0.0\nsamples = 1\nvalue = [0, 0, 0, 0, 0, 1, 0, 0, 0, 0, 0, 0, 0, 0\n0, 0, 0, 0, 0, 0, 0, 0, 0, 0, 0, 0, 0]", fillcolor="#8ce539"] ;
382 -> 383 ;
384 [label="entropy = 0.0\nsamples = 2\nvalue = [0, 0, 0, 0, 0, 0, 2, 0, 0, 0, 0, 0, 0, 0\n0, 0, 0, 0, 0, 0, 0, 0, 0, 0, 0, 0, 0]", fillcolor="#64e539"] ;
382 -> 384 ;
385 [label="whole_weight_g <= 0.266\nentropy = 1.0\nsamples = 2\nvalue = [0, 0, 0, 0, 0, 0, 0, 0, 0, 0, 1, 0, 1, 0\n0, 0, 0, 0, 0, 0, 0, 0, 0, 0, 0, 0, 0]", fillcolor="#ffffff"] ;
381 -> 385 ;
386 [label="entropy = 0.0\nsamples = 1\nvalue = [0, 0, 0, 0, 0, 0, 0, 0, 0, 0, 0, 0, 1, 0\n0, 0, 0, 0, 0, 0, 0, 0, 0, 0, 0, 0, 0]", fillcolor="#39d7e5"] ;
385 -> 386 ;
387 [label="entropy = 0.0\nsamples = 1\nvalue = [0, 0, 0, 0, 0, 0, 0, 0, 0, 0, 1, 0, 0, 0\n0, 0, 0, 0, 0, 0, 0, 0, 0, 0, 0, 0, 0]", fillcolor="#39e5a6"] ;
385 -> 387 ;
388 [label="diam_mm <= 0.315\nentropy = 0.722\nsamples = 5\nvalue = [0, 0, 0, 0, 0, 4, 0, 0, 1, 0, 0, 0, 0, 0\n0, 0, 0, 0, 0, 0, 0, 0, 0, 0, 0, 0, 0]", fillcolor="#a9ec6a"] ;
380 -> 388 ;
389 [label="entropy = 0.0\nsamples = 4\nvalue = [0, 0, 0, 0, 0, 4, 0, 0, 0, 0, 0, 0, 0, 0\n0, 0, 0, 0, 0, 0, 0, 0, 0, 0, 0, 0, 0]", fillcolor="#8ce539"] ;
388 -> 389 ;
390 [label="entropy = 0.0\nsamples = 1\nvalue = [0, 0, 0, 0, 0, 0, 0, 0, 1, 0, 0, 0, 0, 0\n0, 0, 0, 0, 0, 0, 0, 0, 0, 0, 0, 0, 0]", fillcolor="#39e558"] ;
388 -> 390 ;
391 [label="shell_weight_g <= 0.084\nentropy = 2.321\nsamples = 83\nvalue = [0, 0, 0, 4, 18, 28, 23, 3, 4, 1, 0, 2, 0, 0\n0, 0, 0, 0, 0, 0, 0, 0, 0, 0, 0, 0, 0]", fillcolor="#f5fdef"] ;
325 -> 391 ;
392 [label="viscera_weight_g <= 0.059\nentropy = 2.077\nsamples = 25\nvalue = [0, 0, 0, 4, 7, 9, 4, 1, 0, 0, 0, 0, 0, 0\n0, 0, 0, 0, 0, 0, 0, 0, 0, 0, 0, 0, 0]", fillcolor="#f2fce9"] ;
391 -> 392 ;
393 [label="whole_weight_g <= 0.209\nentropy = 1.406\nsamples = 8\nvalue = [0, 0, 0, 0, 3, 1, 4, 0, 0, 0, 0, 0, 0, 0\n0, 0, 0, 0, 0, 0, 0, 0, 0, 0, 0, 0, 0]", fillcolor="#e0fad7"] ;
392 -> 393 ;
394 [label="entropy = 0.0\nsamples = 1\nvalue = [0, 0, 0, 0, 0, 1, 0, 0, 0, 0, 0, 0, 0, 0\n0, 0, 0, 0, 0, 0, 0, 0, 0, 0, 0, 0, 0]", fillcolor="#8ce539"] ;
393 -> 394 ;
395 [label="shucked_weight_g <= 0.13\nentropy = 0.985\nsamples = 7\nvalue = [0, 0, 0, 0, 3, 0, 4, 0, 0, 0, 0, 0, 0, 0\n0, 0, 0, 0, 0, 0, 0, 0, 0, 0, 0, 0, 0]", fillcolor="#d8f8ce"] ;
393 -> 395 ;
396 [label="length_mm <= 0.392\nentropy = 0.971\nsamples = 5\nvalue = [0, 0, 0, 0, 3, 0, 2, 0, 0, 0, 0, 0, 0, 0\n0, 0, 0, 0, 0, 0, 0, 0, 0, 0, 0, 0, 0]", fillcolor="#e5f6bd"] ;
395 -> 396 ;
397 [label="entropy = 0.0\nsamples = 2\nvalue = [0, 0, 0, 0, 0, 0, 2, 0, 0, 0, 0, 0, 0, 0\n0, 0, 0, 0, 0, 0, 0, 0, 0, 0, 0, 0, 0]", fillcolor="#64e539"] ;
396 -> 397 ;
398 [label="entropy = 0.0\nsamples = 3\nvalue = [0, 0, 0, 0, 3, 0, 0, 0, 0, 0, 0, 0, 0, 0\n0, 0, 0, 0, 0, 0, 0, 0, 0, 0, 0, 0, 0]", fillcolor="#b1e539"] ;
396 -> 398 ;
399 [label="entropy = 0.0\nsamples = 2\nvalue = [0, 0, 0, 0, 0, 0, 2, 0, 0, 0, 0, 0, 0, 0\n0, 0, 0, 0, 0, 0, 0, 0, 0, 0, 0, 0, 0]", fillcolor="#64e539"] ;
395 -> 399 ;
400 [label="whole_weight_g <= 0.285\nentropy = 1.735\nsamples = 17\nvalue = [0, 0, 0, 4, 4, 8, 0, 1, 0, 0, 0, 0, 0, 0\n0, 0, 0, 0, 0, 0, 0, 0, 0, 0, 0, 0, 0]", fillcolor="#dcf7c2"] ;
392 -> 400 ;
401 [label="shell_weight_g <= 0.077\nentropy = 0.986\nsamples = 9\nvalue = [0, 0, 0, 1, 0, 7, 0, 1, 0, 0, 0, 0, 0, 0\n0, 0, 0, 0, 0, 0, 0, 0, 0, 0, 0, 0, 0]", fillcolor="#a9ec6a"] ;
400 -> 401 ;
402 [label="entropy = 0.0\nsamples = 1\nvalue = [0, 0, 0, 1, 0, 0, 0, 0, 0, 0, 0, 0, 0, 0\n0, 0, 0, 0, 0, 0, 0, 0, 0, 0, 0, 0, 0]", fillcolor="#d7e539"] ;
401 -> 402 ;
403 [label="diam_mm <= 0.275\nentropy = 0.544\nsamples = 8\nvalue = [0, 0, 0, 0, 0, 7, 0, 1, 0, 0, 0, 0, 0, 0\n0, 0, 0, 0, 0, 0, 0, 0, 0, 0, 0, 0, 0]", fillcolor="#9ce955"] ;
401 -> 403 ;
404 [label="entropy = 0.0\nsamples = 1\nvalue = [0, 0, 0, 0, 0, 0, 0, 1, 0, 0, 0, 0, 0, 0\n0, 0, 0, 0, 0, 0, 0, 0, 0, 0, 0, 0, 0]", fillcolor="#3fe539"] ;
403 -> 404 ;
405 [label="entropy = 0.0\nsamples = 7\nvalue = [0, 0, 0, 0, 0, 7, 0, 0, 0, 0, 0, 0, 0, 0\n0, 0, 0, 0, 0, 0, 0, 0, 0, 0, 0, 0, 0]", fillcolor="#8ce539"] ;
403 -> 405 ;
406 [label="shucked_weight_g <= 0.138\nentropy = 1.406\nsamples = 8\nvalue = [0, 0, 0, 3, 4, 1, 0, 0, 0, 0, 0, 0, 0, 0\n0, 0, 0, 0, 0, 0, 0, 0, 0, 0, 0, 0, 0]", fillcolor="#effad7"] ;
400 -> 406 ;
407 [label="shell_weight_g <= 0.08\nentropy = 0.811\nsamples = 4\nvalue = [0, 0, 0, 0, 3, 1, 0, 0, 0, 0, 0, 0, 0, 0\n0, 0, 0, 0, 0, 0, 0, 0, 0, 0, 0, 0, 0]", fillcolor="#cbee7b"] ;
406 -> 407 ;
408 [label="entropy = 0.0\nsamples = 3\nvalue = [0, 0, 0, 0, 3, 0, 0, 0, 0, 0, 0, 0, 0, 0\n0, 0, 0, 0, 0, 0, 0, 0, 0, 0, 0, 0, 0]", fillcolor="#b1e539"] ;
407 -> 408 ;
409 [label="entropy = 0.0\nsamples = 1\nvalue = [0, 0, 0, 0, 0, 1, 0, 0, 0, 0, 0, 0, 0, 0\n0, 0, 0, 0, 0, 0, 0, 0, 0, 0, 0, 0, 0]", fillcolor="#8ce539"] ;
407 -> 409 ;
410 [label="height_mm <= 0.102\nentropy = 0.811\nsamples = 4\nvalue = [0, 0, 0, 3, 1, 0, 0, 0, 0, 0, 0, 0, 0, 0\n0, 0, 0, 0, 0, 0, 0, 0, 0, 0, 0, 0, 0]", fillcolor="#e4ee7b"] ;
406 -> 410 ;
411 [label="entropy = 0.0\nsamples = 3\nvalue = [0, 0, 0, 3, 0, 0, 0, 0, 0, 0, 0, 0, 0, 0\n0, 0, 0, 0, 0, 0, 0, 0, 0, 0, 0, 0, 0]", fillcolor="#d7e539"] ;
410 -> 411 ;
412 [label="entropy = 0.0\nsamples = 1\nvalue = [0, 0, 0, 0, 1, 0, 0, 0, 0, 0, 0, 0, 0, 0\n0, 0, 0, 0, 0, 0, 0, 0, 0, 0, 0, 0, 0]", fillcolor="#b1e539"] ;
410 -> 412 ;
413 [label="viscera_weight_g <= 0.064\nentropy = 2.212\nsamples = 58\nvalue = [0, 0, 0, 0, 11, 19, 19, 2, 4, 1, 0, 2, 0, 0\n0, 0, 0, 0, 0, 0, 0, 0, 0, 0, 0, 0, 0]", fillcolor="#ffffff"] ;
391 -> 413 ;
414 [label="viscera_weight_g <= 0.063\nentropy = 2.3\nsamples = 29\nvalue = [0, 0, 0, 0, 3, 7, 12, 1, 3, 1, 0, 2, 0, 0\n0, 0, 0, 0, 0, 0, 0, 0, 0, 0, 0, 0, 0]", fillcolor="#dcf9d2"] ;
413 -> 414 ;
415 [label="diam_mm <= 0.312\nentropy = 2.017\nsamples = 24\nvalue = [0, 0, 0, 0, 3, 7, 10, 0, 2, 0, 0, 2, 0, 0\n0, 0, 0, 0, 0, 0, 0, 0, 0, 0, 0, 0, 0]", fillcolor="#e4fadc"] ;
414 -> 415 ;
416 [label="viscera_weight_g <= 0.057\nentropy = 2.013\nsamples = 15\nvalue = [0, 0, 0, 0, 3, 2, 7, 0, 1, 0, 0, 2, 0, 0\n0, 0, 0, 0, 0, 0, 0, 0, 0, 0, 0, 0, 0]", fillcolor="#cbf6bd"] ;
415 -> 416 ;
417 [label="viscera_weight_g <= 0.049\nentropy = 1.95\nsamples = 7\nvalue = [0, 0, 0, 0, 2, 2, 2, 0, 1, 0, 0, 0, 0, 0\n0, 0, 0, 0, 0, 0, 0, 0, 0, 0, 0, 0, 0]", fillcolor="#ffffff"] ;
416 -> 417 ;
418 [label="height_mm <= 0.102\nentropy = 0.918\nsamples = 3\nvalue = [0, 0, 0, 0, 0, 0, 2, 0, 1, 0, 0, 0, 0, 0\n0, 0, 0, 0, 0, 0, 0, 0, 0, 0, 0, 0, 0]", fillcolor="#b2f29c"] ;
417 -> 418 ;
419 [label="entropy = 0.0\nsamples = 1\nvalue = [0, 0, 0, 0, 0, 0, 0, 0, 1, 0, 0, 0, 0, 0\n0, 0, 0, 0, 0, 0, 0, 0, 0, 0, 0, 0, 0]", fillcolor="#39e558"] ;
418 -> 419 ;
420 [label="entropy = 0.0\nsamples = 2\nvalue = [0, 0, 0, 0, 0, 0, 2, 0, 0, 0, 0, 0, 0, 0\n0, 0, 0, 0, 0, 0, 0, 0, 0, 0, 0, 0, 0]", fillcolor="#64e539"] ;
418 -> 420 ;
421 [label="whole_weight_g <= 0.281\nentropy = 1.0\nsamples = 4\nvalue = [0, 0, 0, 0, 2, 2, 0, 0, 0, 0, 0, 0, 0, 0\n0, 0, 0, 0, 0, 0, 0, 0, 0, 0, 0, 0, 0]", fillcolor="#ffffff"] ;
417 -> 421 ;
422 [label="entropy = 0.0\nsamples = 2\nvalue = [0, 0, 0, 0, 2, 0, 0, 0, 0, 0, 0, 0, 0, 0\n0, 0, 0, 0, 0, 0, 0, 0, 0, 0, 0, 0, 0]", fillcolor="#b1e539"] ;
421 -> 422 ;
423 [label="entropy = 0.0\nsamples = 2\nvalue = [0, 0, 0, 0, 0, 2, 0, 0, 0, 0, 0, 0, 0, 0\n0, 0, 0, 0, 0, 0, 0, 0, 0, 0, 0, 0, 0]", fillcolor="#8ce539"] ;
421 -> 423 ;
424 [label="viscera_weight_g <= 0.061\nentropy = 1.299\nsamples = 8\nvalue = [0, 0, 0, 0, 1, 0, 5, 0, 0, 0, 0, 2, 0, 0\n0, 0, 0, 0, 0, 0, 0, 0, 0, 0, 0, 0, 0]", fillcolor="#b2f29c"] ;
416 -> 424 ;
425 [label="viscera_weight_g <= 0.059\nentropy = 1.522\nsamples = 5\nvalue = [0, 0, 0, 0, 1, 0, 2, 0, 0, 0, 0, 2, 0, 0\n0, 0, 0, 0, 0, 0, 0, 0, 0, 0, 0, 0, 0]", fillcolor="#ffffff"] ;
424 -> 425 ;
426 [label="entropy = 0.0\nsamples = 1\nvalue = [0, 0, 0, 0, 0, 0, 0, 0, 0, 0, 0, 1, 0, 0\n0, 0, 0, 0, 0, 0, 0, 0, 0, 0, 0, 0, 0]", fillcolor="#39e5cb"] ;
425 -> 426 ;
427 [label="shucked_weight_g <= 0.111\nentropy = 1.5\nsamples = 4\nvalue = [0, 0, 0, 0, 1, 0, 2, 0, 0, 0, 0, 1, 0, 0\n0, 0, 0, 0, 0, 0, 0, 0, 0, 0, 0, 0, 0]", fillcolor="#cbf6bd"] ;
425 -> 427 ;
428 [label="entropy = 0.0\nsamples = 1\nvalue = [0, 0, 0, 0, 0, 0, 0, 0, 0, 0, 0, 1, 0, 0\n0, 0, 0, 0, 0, 0, 0, 0, 0, 0, 0, 0, 0]", fillcolor="#39e5cb"] ;
427 -> 428 ;
429 [label="whole_weight_g <= 0.295\nentropy = 0.918\nsamples = 3\nvalue = [0, 0, 0, 0, 1, 0, 2, 0, 0, 0, 0, 0, 0, 0\n0, 0, 0, 0, 0, 0, 0, 0, 0, 0, 0, 0, 0]", fillcolor="#b2f29c"] ;
427 -> 429 ;
430 [label="entropy = 0.0\nsamples = 1\nvalue = [0, 0, 0, 0, 0, 0, 1, 0, 0, 0, 0, 0, 0, 0\n0, 0, 0, 0, 0, 0, 0, 0, 0, 0, 0, 0, 0]", fillcolor="#64e539"] ;
429 -> 430 ;
431 [label="height_mm <= 0.095\nentropy = 1.0\nsamples = 2\nvalue = [0, 0, 0, 0, 1, 0, 1, 0, 0, 0, 0, 0, 0, 0\n0, 0, 0, 0, 0, 0, 0, 0, 0, 0, 0, 0, 0]", fillcolor="#ffffff"] ;
429 -> 431 ;
432 [label="entropy = 0.0\nsamples = 1\nvalue = [0, 0, 0, 0, 0, 0, 1, 0, 0, 0, 0, 0, 0, 0\n0, 0, 0, 0, 0, 0, 0, 0, 0, 0, 0, 0, 0]", fillcolor="#64e539"] ;
431 -> 432 ;
433 [label="entropy = 0.0\nsamples = 1\nvalue = [0, 0, 0, 0, 1, 0, 0, 0, 0, 0, 0, 0, 0, 0\n0, 0, 0, 0, 0, 0, 0, 0, 0, 0, 0, 0, 0]", fillcolor="#b1e539"] ;
431 -> 433 ;
434 [label="entropy = 0.0\nsamples = 3\nvalue = [0, 0, 0, 0, 0, 0, 3, 0, 0, 0, 0, 0, 0, 0\n0, 0, 0, 0, 0, 0, 0, 0, 0, 0, 0, 0, 0]", fillcolor="#64e539"] ;
424 -> 434 ;
435 [label="shucked_weight_g <= 0.144\nentropy = 1.352\nsamples = 9\nvalue = [0, 0, 0, 0, 0, 5, 3, 0, 1, 0, 0, 0, 0, 0\n0, 0, 0, 0, 0, 0, 0, 0, 0, 0, 0, 0, 0]", fillcolor="#d9f6bd"] ;
415 -> 435 ;
436 [label="shell_weight_g <= 0.093\nentropy = 0.65\nsamples = 6\nvalue = [0, 0, 0, 0, 0, 5, 1, 0, 0, 0, 0, 0, 0, 0\n0, 0, 0, 0, 0, 0, 0, 0, 0, 0, 0, 0, 0]", fillcolor="#a3ea61"] ;
435 -> 436 ;
437 [label="entropy = 0.0\nsamples = 1\nvalue = [0, 0, 0, 0, 0, 0, 1, 0, 0, 0, 0, 0, 0, 0\n0, 0, 0, 0, 0, 0, 0, 0, 0, 0, 0, 0, 0]", fillcolor="#64e539"] ;
436 -> 437 ;
438 [label="entropy = 0.0\nsamples = 5\nvalue = [0, 0, 0, 0, 0, 5, 0, 0, 0, 0, 0, 0, 0, 0\n0, 0, 0, 0, 0, 0, 0, 0, 0, 0, 0, 0, 0]", fillcolor="#8ce539"] ;
436 -> 438 ;
439 [label="shell_weight_g <= 0.102\nentropy = 0.918\nsamples = 3\nvalue = [0, 0, 0, 0, 0, 0, 2, 0, 1, 0, 0, 0, 0, 0\n0, 0, 0, 0, 0, 0, 0, 0, 0, 0, 0, 0, 0]", fillcolor="#b2f29c"] ;
435 -> 439 ;
440 [label="entropy = 0.0\nsamples = 2\nvalue = [0, 0, 0, 0, 0, 0, 2, 0, 0, 0, 0, 0, 0, 0\n0, 0, 0, 0, 0, 0, 0, 0, 0, 0, 0, 0, 0]", fillcolor="#64e539"] ;
439 -> 440 ;
441 [label="entropy = 0.0\nsamples = 1\nvalue = [0, 0, 0, 0, 0, 0, 0, 0, 1, 0, 0, 0, 0, 0\n0, 0, 0, 0, 0, 0, 0, 0, 0, 0, 0, 0, 0]", fillcolor="#39e558"] ;
439 -> 441 ;
442 [label="whole_weight_g <= 0.308\nentropy = 1.922\nsamples = 5\nvalue = [0, 0, 0, 0, 0, 0, 2, 1, 1, 1, 0, 0, 0, 0\n0, 0, 0, 0, 0, 0, 0, 0, 0, 0, 0, 0, 0]", fillcolor="#d8f8ce"] ;
414 -> 442 ;
443 [label="length_mm <= 0.395\nentropy = 1.0\nsamples = 2\nvalue = [0, 0, 0, 0, 0, 0, 0, 0, 1, 1, 0, 0, 0, 0\n0, 0, 0, 0, 0, 0, 0, 0, 0, 0, 0, 0, 0]", fillcolor="#ffffff"] ;
442 -> 443 ;
444 [label="entropy = 0.0\nsamples = 1\nvalue = [0, 0, 0, 0, 0, 0, 0, 0, 0, 1, 0, 0, 0, 0\n0, 0, 0, 0, 0, 0, 0, 0, 0, 0, 0, 0, 0]", fillcolor="#39e581"] ;
443 -> 444 ;
445 [label="entropy = 0.0\nsamples = 1\nvalue = [0, 0, 0, 0, 0, 0, 0, 0, 1, 0, 0, 0, 0, 0\n0, 0, 0, 0, 0, 0, 0, 0, 0, 0, 0, 0, 0]", fillcolor="#39e558"] ;
443 -> 445 ;
446 [label="shucked_weight_g <= 0.144\nentropy = 0.918\nsamples = 3\nvalue = [0, 0, 0, 0, 0, 0, 2, 1, 0, 0, 0, 0, 0, 0\n0, 0, 0, 0, 0, 0, 0, 0, 0, 0, 0, 0, 0]", fillcolor="#b2f29c"] ;
442 -> 446 ;
447 [label="entropy = 0.0\nsamples = 2\nvalue = [0, 0, 0, 0, 0, 0, 2, 0, 0, 0, 0, 0, 0, 0\n0, 0, 0, 0, 0, 0, 0, 0, 0, 0, 0, 0, 0]", fillcolor="#64e539"] ;
446 -> 447 ;
448 [label="entropy = 0.0\nsamples = 1\nvalue = [0, 0, 0, 0, 0, 0, 0, 1, 0, 0, 0, 0, 0, 0\n0, 0, 0, 0, 0, 0, 0, 0, 0, 0, 0, 0, 0]", fillcolor="#3fe539"] ;
446 -> 448 ;
449 [label="diam_mm <= 0.333\nentropy = 1.869\nsamples = 29\nvalue = [0, 0, 0, 0, 8, 12, 7, 1, 1, 0, 0, 0, 0, 0\n0, 0, 0, 0, 0, 0, 0, 0, 0, 0, 0, 0, 0]", fillcolor="#e9fad9"] ;
413 -> 449 ;
450 [label="shucked_weight_g <= 0.097\nentropy = 1.757\nsamples = 25\nvalue = [0, 0, 0, 0, 8, 9, 7, 1, 0, 0, 0, 0, 0, 0\n0, 0, 0, 0, 0, 0, 0, 0, 0, 0, 0, 0, 0]", fillcolor="#f8fdf3"] ;
449 -> 450 ;
451 [label="entropy = 0.0\nsamples = 1\nvalue = [0, 0, 0, 0, 0, 0, 0, 1, 0, 0, 0, 0, 0, 0\n0, 0, 0, 0, 0, 0, 0, 0, 0, 0, 0, 0, 0]", fillcolor="#3fe539"] ;
450 -> 451 ;
452 [label="shucked_weight_g <= 0.131\nentropy = 1.577\nsamples = 24\nvalue = [0, 0, 0, 0, 8, 9, 7, 0, 0, 0, 0, 0, 0, 0\n0, 0, 0, 0, 0, 0, 0, 0, 0, 0, 0, 0, 0]", fillcolor="#f8fdf3"] ;
450 -> 452 ;
453 [label="viscera_weight_g <= 0.073\nentropy = 1.384\nsamples = 12\nvalue = [0, 0, 0, 0, 2, 7, 3, 0, 0, 0, 0, 0, 0, 0\n0, 0, 0, 0, 0, 0, 0, 0, 0, 0, 0, 0, 0]", fillcolor="#ccf3a7"] ;
452 -> 453 ;
454 [label="viscera_weight_g <= 0.069\nentropy = 0.863\nsamples = 7\nvalue = [0, 0, 0, 0, 2, 5, 0, 0, 0, 0, 0, 0, 0, 0\n0, 0, 0, 0, 0, 0, 0, 0, 0, 0, 0, 0, 0]", fillcolor="#baef88"] ;
453 -> 454 ;
455 [label="shell_weight_g <= 0.09\nentropy = 0.918\nsamples = 3\nvalue = [0, 0, 0, 0, 2, 1, 0, 0, 0, 0, 0, 0, 0, 0\n0, 0, 0, 0, 0, 0, 0, 0, 0, 0, 0, 0, 0]", fillcolor="#d8f29c"] ;
454 -> 455 ;
456 [label="entropy = 0.0\nsamples = 1\nvalue = [0, 0, 0, 0, 0, 1, 0, 0, 0, 0, 0, 0, 0, 0\n0, 0, 0, 0, 0, 0, 0, 0, 0, 0, 0, 0, 0]", fillcolor="#8ce539"] ;
455 -> 456 ;
457 [label="entropy = 0.0\nsamples = 2\nvalue = [0, 0, 0, 0, 2, 0, 0, 0, 0, 0, 0, 0, 0, 0\n0, 0, 0, 0, 0, 0, 0, 0, 0, 0, 0, 0, 0]", fillcolor="#b1e539"] ;
455 -> 457 ;
458 [label="entropy = 0.0\nsamples = 4\nvalue = [0, 0, 0, 0, 0, 4, 0, 0, 0, 0, 0, 0, 0, 0\n0, 0, 0, 0, 0, 0, 0, 0, 0, 0, 0, 0, 0]", fillcolor="#8ce539"] ;
454 -> 458 ;
459 [label="shell_weight_g <= 0.094\nentropy = 0.971\nsamples = 5\nvalue = [0, 0, 0, 0, 0, 2, 3, 0, 0, 0, 0, 0, 0, 0\n0, 0, 0, 0, 0, 0, 0, 0, 0, 0, 0, 0, 0]", fillcolor="#cbf6bd"] ;
453 -> 459 ;
460 [label="height_mm <= 0.108\nentropy = 0.918\nsamples = 3\nvalue = [0, 0, 0, 0, 0, 2, 1, 0, 0, 0, 0, 0, 0, 0\n0, 0, 0, 0, 0, 0, 0, 0, 0, 0, 0, 0, 0]", fillcolor="#c6f29c"] ;
459 -> 460 ;
461 [label="entropy = 0.0\nsamples = 1\nvalue = [0, 0, 0, 0, 0, 0, 1, 0, 0, 0, 0, 0, 0, 0\n0, 0, 0, 0, 0, 0, 0, 0, 0, 0, 0, 0, 0]", fillcolor="#64e539"] ;
460 -> 461 ;
462 [label="entropy = 0.0\nsamples = 2\nvalue = [0, 0, 0, 0, 0, 2, 0, 0, 0, 0, 0, 0, 0, 0\n0, 0, 0, 0, 0, 0, 0, 0, 0, 0, 0, 0, 0]", fillcolor="#8ce539"] ;
460 -> 462 ;
463 [label="entropy = 0.0\nsamples = 2\nvalue = [0, 0, 0, 0, 0, 0, 2, 0, 0, 0, 0, 0, 0, 0\n0, 0, 0, 0, 0, 0, 0, 0, 0, 0, 0, 0, 0]", fillcolor="#64e539"] ;
459 -> 463 ;
464 [label="shucked_weight_g <= 0.139\nentropy = 1.459\nsamples = 12\nvalue = [0, 0, 0, 0, 6, 2, 4, 0, 0, 0, 0, 0, 0, 0\n0, 0, 0, 0, 0, 0, 0, 0, 0, 0, 0, 0, 0]", fillcolor="#ecf8ce"] ;
452 -> 464 ;
465 [label="height_mm <= 0.102\nentropy = 0.954\nsamples = 8\nvalue = [0, 0, 0, 0, 5, 0, 3, 0, 0, 0, 0, 0, 0, 0\n0, 0, 0, 0, 0, 0, 0, 0, 0, 0, 0, 0, 0]", fillcolor="#e0f5b0"] ;
464 -> 465 ;
466 [label="entropy = 0.0\nsamples = 3\nvalue = [0, 0, 0, 0, 3, 0, 0, 0, 0, 0, 0, 0, 0, 0\n0, 0, 0, 0, 0, 0, 0, 0, 0, 0, 0, 0, 0]", fillcolor="#b1e539"] ;
465 -> 466 ;
467 [label="height_mm <= 0.113\nentropy = 0.971\nsamples = 5\nvalue = [0, 0, 0, 0, 2, 0, 3, 0, 0, 0, 0, 0, 0, 0\n0, 0, 0, 0, 0, 0, 0, 0, 0, 0, 0, 0, 0]", fillcolor="#cbf6bd"] ;
465 -> 467 ;
468 [label="entropy = 0.0\nsamples = 3\nvalue = [0, 0, 0, 0, 0, 0, 3, 0, 0, 0, 0, 0, 0, 0\n0, 0, 0, 0, 0, 0, 0, 0, 0, 0, 0, 0, 0]", fillcolor="#64e539"] ;
467 -> 468 ;
469 [label="entropy = 0.0\nsamples = 2\nvalue = [0, 0, 0, 0, 2, 0, 0, 0, 0, 0, 0, 0, 0, 0\n0, 0, 0, 0, 0, 0, 0, 0, 0, 0, 0, 0, 0]", fillcolor="#b1e539"] ;
467 -> 469 ;
470 [label="viscera_weight_g <= 0.074\nentropy = 1.5\nsamples = 4\nvalue = [0, 0, 0, 0, 1, 2, 1, 0, 0, 0, 0, 0, 0, 0\n0, 0, 0, 0, 0, 0, 0, 0, 0, 0, 0, 0, 0]", fillcolor="#d9f6bd"] ;
464 -> 470 ;
471 [label="whole_weight_g <= 0.323\nentropy = 1.0\nsamples = 2\nvalue = [0, 0, 0, 0, 1, 0, 1, 0, 0, 0, 0, 0, 0, 0\n0, 0, 0, 0, 0, 0, 0, 0, 0, 0, 0, 0, 0]", fillcolor="#ffffff"] ;
470 -> 471 ;
472 [label="entropy = 0.0\nsamples = 1\nvalue = [0, 0, 0, 0, 1, 0, 0, 0, 0, 0, 0, 0, 0, 0\n0, 0, 0, 0, 0, 0, 0, 0, 0, 0, 0, 0, 0]", fillcolor="#b1e539"] ;
471 -> 472 ;
473 [label="entropy = 0.0\nsamples = 1\nvalue = [0, 0, 0, 0, 0, 0, 1, 0, 0, 0, 0, 0, 0, 0\n0, 0, 0, 0, 0, 0, 0, 0, 0, 0, 0, 0, 0]", fillcolor="#64e539"] ;
471 -> 473 ;
474 [label="entropy = 0.0\nsamples = 2\nvalue = [0, 0, 0, 0, 0, 2, 0, 0, 0, 0, 0, 0, 0, 0\n0, 0, 0, 0, 0, 0, 0, 0, 0, 0, 0, 0, 0]", fillcolor="#8ce539"] ;
470 -> 474 ;
475 [label="shucked_weight_g <= 0.129\nentropy = 0.811\nsamples = 4\nvalue = [0, 0, 0, 0, 0, 3, 0, 0, 1, 0, 0, 0, 0, 0\n0, 0, 0, 0, 0, 0, 0, 0, 0, 0, 0, 0, 0]", fillcolor="#b2ee7b"] ;
449 -> 475 ;
476 [label="entropy = 0.0\nsamples = 1\nvalue = [0, 0, 0, 0, 0, 0, 0, 0, 1, 0, 0, 0, 0, 0\n0, 0, 0, 0, 0, 0, 0, 0, 0, 0, 0, 0, 0]", fillcolor="#39e558"] ;
475 -> 476 ;
477 [label="entropy = 0.0\nsamples = 3\nvalue = [0, 0, 0, 0, 0, 3, 0, 0, 0, 0, 0, 0, 0, 0\n0, 0, 0, 0, 0, 0, 0, 0, 0, 0, 0, 0, 0]", fillcolor="#8ce539"] ;
475 -> 477 ;
478 [label="length_mm <= 0.422\nentropy = 2.47\nsamples = 13\nvalue = [0, 0, 0, 0, 0, 2, 2, 4, 2, 2, 1, 0, 0, 0\n0, 0, 0, 0, 0, 0, 0, 0, 0, 0, 0, 0, 0]", fillcolor="#dcfadb"] ;
324 -> 478 ;
479 [label="shucked_weight_g <= 0.145\nentropy = 1.459\nsamples = 6\nvalue = [0, 0, 0, 0, 0, 0, 0, 3, 2, 0, 1, 0, 0, 0\n0, 0, 0, 0, 0, 0, 0, 0, 0, 0, 0, 0, 0]", fillcolor="#cff8ce"] ;
478 -> 479 ;
480 [label="length_mm <= 0.41\nentropy = 1.0\nsamples = 2\nvalue = [0, 0, 0, 0, 0, 0, 0, 0, 1, 0, 1, 0, 0, 0\n0, 0, 0, 0, 0, 0, 0, 0, 0, 0, 0, 0, 0]", fillcolor="#ffffff"] ;
479 -> 480 ;
481 [label="entropy = 0.0\nsamples = 1\nvalue = [0, 0, 0, 0, 0, 0, 0, 0, 0, 0, 1, 0, 0, 0\n0, 0, 0, 0, 0, 0, 0, 0, 0, 0, 0, 0, 0]", fillcolor="#39e5a6"] ;
480 -> 481 ;
482 [label="entropy = 0.0\nsamples = 1\nvalue = [0, 0, 0, 0, 0, 0, 0, 0, 1, 0, 0, 0, 0, 0\n0, 0, 0, 0, 0, 0, 0, 0, 0, 0, 0, 0, 0]", fillcolor="#39e558"] ;
480 -> 482 ;
483 [label="length_mm <= 0.403\nentropy = 0.811\nsamples = 4\nvalue = [0, 0, 0, 0, 0, 0, 0, 3, 1, 0, 0, 0, 0, 0\n0, 0, 0, 0, 0, 0, 0, 0, 0, 0, 0, 0, 0]", fillcolor="#7fee7b"] ;
479 -> 483 ;
484 [label="entropy = 0.0\nsamples = 1\nvalue = [0, 0, 0, 0, 0, 0, 0, 0, 1, 0, 0, 0, 0, 0\n0, 0, 0, 0, 0, 0, 0, 0, 0, 0, 0, 0, 0]", fillcolor="#39e558"] ;
483 -> 484 ;
485 [label="entropy = 0.0\nsamples = 3\nvalue = [0, 0, 0, 0, 0, 0, 0, 3, 0, 0, 0, 0, 0, 0\n0, 0, 0, 0, 0, 0, 0, 0, 0, 0, 0, 0, 0]", fillcolor="#3fe539"] ;
483 -> 485 ;
486 [label="shucked_weight_g <= 0.145\nentropy = 1.95\nsamples = 7\nvalue = [0, 0, 0, 0, 0, 2, 2, 1, 0, 2, 0, 0, 0, 0\n0, 0, 0, 0, 0, 0, 0, 0, 0, 0, 0, 0, 0]", fillcolor="#ffffff"] ;
478 -> 486 ;
487 [label="whole_weight_g <= 0.361\nentropy = 0.918\nsamples = 3\nvalue = [0, 0, 0, 0, 0, 0, 0, 1, 0, 2, 0, 0, 0, 0\n0, 0, 0, 0, 0, 0, 0, 0, 0, 0, 0, 0, 0]", fillcolor="#9cf2c0"] ;
486 -> 487 ;
488 [label="entropy = 0.0\nsamples = 2\nvalue = [0, 0, 0, 0, 0, 0, 0, 0, 0, 2, 0, 0, 0, 0\n0, 0, 0, 0, 0, 0, 0, 0, 0, 0, 0, 0, 0]", fillcolor="#39e581"] ;
487 -> 488 ;
489 [label="entropy = 0.0\nsamples = 1\nvalue = [0, 0, 0, 0, 0, 0, 0, 1, 0, 0, 0, 0, 0, 0\n0, 0, 0, 0, 0, 0, 0, 0, 0, 0, 0, 0, 0]", fillcolor="#3fe539"] ;
487 -> 489 ;
490 [label="diam_mm <= 0.335\nentropy = 1.0\nsamples = 4\nvalue = [0, 0, 0, 0, 0, 2, 2, 0, 0, 0, 0, 0, 0, 0\n0, 0, 0, 0, 0, 0, 0, 0, 0, 0, 0, 0, 0]", fillcolor="#ffffff"] ;
486 -> 490 ;
491 [label="entropy = 0.0\nsamples = 2\nvalue = [0, 0, 0, 0, 0, 2, 0, 0, 0, 0, 0, 0, 0, 0\n0, 0, 0, 0, 0, 0, 0, 0, 0, 0, 0, 0, 0]", fillcolor="#8ce539"] ;
490 -> 491 ;
492 [label="entropy = 0.0\nsamples = 2\nvalue = [0, 0, 0, 0, 0, 0, 2, 0, 0, 0, 0, 0, 0, 0\n0, 0, 0, 0, 0, 0, 0, 0, 0, 0, 0, 0, 0]", fillcolor="#64e539"] ;
490 -> 492 ;
493 [label="shell_weight_g <= 0.103\nentropy = 2.086\nsamples = 115\nvalue = [0, 0, 0, 2, 36, 46, 19, 7, 0, 3, 1, 0, 1, 0\n0, 0, 0, 0, 0, 0, 0, 0, 0, 0, 0, 0, 0]", fillcolor="#f0fce6"] ;
323 -> 493 ;
494 [label="viscera_weight_g <= 0.103\nentropy = 1.719\nsamples = 46\nvalue = [0, 0, 0, 2, 19, 19, 5, 0, 0, 0, 1, 0, 0, 0\n0, 0, 0, 0, 0, 0, 0, 0, 0, 0, 0, 0, 0]", fillcolor="#ffffff"] ;
493 -> 494 ;
495 [label="shell_weight_g <= 0.098\nentropy = 1.563\nsamples = 44\nvalue = [0, 0, 0, 2, 19, 19, 4, 0, 0, 0, 0, 0, 0, 0\n0, 0, 0, 0, 0, 0, 0, 0, 0, 0, 0, 0, 0]", fillcolor="#ffffff"] ;
494 -> 495 ;
496 [label="viscera_weight_g <= 0.067\nentropy = 1.336\nsamples = 32\nvalue = [0, 0, 0, 0, 17, 12, 3, 0, 0, 0, 0, 0, 0, 0\n0, 0, 0, 0, 0, 0, 0, 0, 0, 0, 0, 0, 0]", fillcolor="#ecf8ce"] ;
495 -> 496 ;
497 [label="shell_weight_g <= 0.089\nentropy = 0.866\nsamples = 11\nvalue = [0, 0, 0, 0, 9, 1, 1, 0, 0, 0, 0, 0, 0, 0\n0, 0, 0, 0, 0, 0, 0, 0, 0, 0, 0, 0, 0]", fillcolor="#c1ea61"] ;
496 -> 497 ;
498 [label="whole_weight_g <= 0.341\nentropy = 0.503\nsamples = 9\nvalue = [0, 0, 0, 0, 8, 0, 1, 0, 0, 0, 0, 0, 0, 0\n0, 0, 0, 0, 0, 0, 0, 0, 0, 0, 0, 0, 0]", fillcolor="#bbe852"] ;
497 -> 498 ;
499 [label="entropy = 0.0\nsamples = 6\nvalue = [0, 0, 0, 0, 6, 0, 0, 0, 0, 0, 0, 0, 0, 0\n0, 0, 0, 0, 0, 0, 0, 0, 0, 0, 0, 0, 0]", fillcolor="#b1e539"] ;
498 -> 499 ;
500 [label="diam_mm <= 0.312\nentropy = 0.918\nsamples = 3\nvalue = [0, 0, 0, 0, 2, 0, 1, 0, 0, 0, 0, 0, 0, 0\n0, 0, 0, 0, 0, 0, 0, 0, 0, 0, 0, 0, 0]", fillcolor="#d8f29c"] ;
498 -> 500 ;
501 [label="entropy = 0.0\nsamples = 1\nvalue = [0, 0, 0, 0, 0, 0, 1, 0, 0, 0, 0, 0, 0, 0\n0, 0, 0, 0, 0, 0, 0, 0, 0, 0, 0, 0, 0]", fillcolor="#64e539"] ;
500 -> 501 ;
502 [label="entropy = 0.0\nsamples = 2\nvalue = [0, 0, 0, 0, 2, 0, 0, 0, 0, 0, 0, 0, 0, 0\n0, 0, 0, 0, 0, 0, 0, 0, 0, 0, 0, 0, 0]", fillcolor="#b1e539"] ;
500 -> 502 ;
503 [label="shell_weight_g <= 0.09\nentropy = 1.0\nsamples = 2\nvalue = [0, 0, 0, 0, 1, 1, 0, 0, 0, 0, 0, 0, 0, 0\n0, 0, 0, 0, 0, 0, 0, 0, 0, 0, 0, 0, 0]", fillcolor="#ffffff"] ;
497 -> 503 ;
504 [label="entropy = 0.0\nsamples = 1\nvalue = [0, 0, 0, 0, 0, 1, 0, 0, 0, 0, 0, 0, 0, 0\n0, 0, 0, 0, 0, 0, 0, 0, 0, 0, 0, 0, 0]", fillcolor="#8ce539"] ;
503 -> 504 ;
505 [label="entropy = 0.0\nsamples = 1\nvalue = [0, 0, 0, 0, 1, 0, 0, 0, 0, 0, 0, 0, 0, 0\n0, 0, 0, 0, 0, 0, 0, 0, 0, 0, 0, 0, 0]", fillcolor="#b1e539"] ;
503 -> 505 ;
506 [label="diam_mm <= 0.312\nentropy = 1.342\nsamples = 21\nvalue = [0, 0, 0, 0, 8, 11, 2, 0, 0, 0, 0, 0, 0, 0\n0, 0, 0, 0, 0, 0, 0, 0, 0, 0, 0, 0, 0]", fillcolor="#e4f9d1"] ;
496 -> 506 ;
507 [label="entropy = 0.0\nsamples = 6\nvalue = [0, 0, 0, 0, 0, 6, 0, 0, 0, 0, 0, 0, 0, 0\n0, 0, 0, 0, 0, 0, 0, 0, 0, 0, 0, 0, 0]", fillcolor="#8ce539"] ;
506 -> 507 ;
508 [label="length_mm <= 0.428\nentropy = 1.4\nsamples = 15\nvalue = [0, 0, 0, 0, 8, 5, 2, 0, 0, 0, 0, 0, 0, 0\n0, 0, 0, 0, 0, 0, 0, 0, 0, 0, 0, 0, 0]", fillcolor="#e8f7c4"] ;
506 -> 508 ;
509 [label="shell_weight_g <= 0.094\nentropy = 0.722\nsamples = 5\nvalue = [0, 0, 0, 0, 4, 0, 1, 0, 0, 0, 0, 0, 0, 0\n0, 0, 0, 0, 0, 0, 0, 0, 0, 0, 0, 0, 0]", fillcolor="#c4ec6a"] ;
508 -> 509 ;
510 [label="entropy = 0.0\nsamples = 4\nvalue = [0, 0, 0, 0, 4, 0, 0, 0, 0, 0, 0, 0, 0, 0\n0, 0, 0, 0, 0, 0, 0, 0, 0, 0, 0, 0, 0]", fillcolor="#b1e539"] ;
509 -> 510 ;
511 [label="entropy = 0.0\nsamples = 1\nvalue = [0, 0, 0, 0, 0, 0, 1, 0, 0, 0, 0, 0, 0, 0\n0, 0, 0, 0, 0, 0, 0, 0, 0, 0, 0, 0, 0]", fillcolor="#64e539"] ;
509 -> 511 ;
512 [label="shell_weight_g <= 0.095\nentropy = 1.361\nsamples = 10\nvalue = [0, 0, 0, 0, 4, 5, 1, 0, 0, 0, 0, 0, 0, 0\n0, 0, 0, 0, 0, 0, 0, 0, 0, 0, 0, 0, 0]", fillcolor="#ecfbde"] ;
508 -> 512 ;
513 [label="shucked_weight_g <= 0.218\nentropy = 0.65\nsamples = 6\nvalue = [0, 0, 0, 0, 1, 5, 0, 0, 0, 0, 0, 0, 0, 0\n0, 0, 0, 0, 0, 0, 0, 0, 0, 0, 0, 0, 0]", fillcolor="#a3ea61"] ;
512 -> 513 ;
514 [label="entropy = 0.0\nsamples = 5\nvalue = [0, 0, 0, 0, 0, 5, 0, 0, 0, 0, 0, 0, 0, 0\n0, 0, 0, 0, 0, 0, 0, 0, 0, 0, 0, 0, 0]", fillcolor="#8ce539"] ;
513 -> 514 ;
515 [label="entropy = 0.0\nsamples = 1\nvalue = [0, 0, 0, 0, 1, 0, 0, 0, 0, 0, 0, 0, 0, 0\n0, 0, 0, 0, 0, 0, 0, 0, 0, 0, 0, 0, 0]", fillcolor="#b1e539"] ;
513 -> 515 ;
516 [label="whole_weight_g <= 0.399\nentropy = 0.811\nsamples = 4\nvalue = [0, 0, 0, 0, 3, 0, 1, 0, 0, 0, 0, 0, 0, 0\n0, 0, 0, 0, 0, 0, 0, 0, 0, 0, 0, 0, 0]", fillcolor="#cbee7b"] ;
512 -> 516 ;
517 [label="entropy = 0.0\nsamples = 1\nvalue = [0, 0, 0, 0, 0, 0, 1, 0, 0, 0, 0, 0, 0, 0\n0, 0, 0, 0, 0, 0, 0, 0, 0, 0, 0, 0, 0]", fillcolor="#64e539"] ;
516 -> 517 ;
518 [label="entropy = 0.0\nsamples = 3\nvalue = [0, 0, 0, 0, 3, 0, 0, 0, 0, 0, 0, 0, 0, 0\n0, 0, 0, 0, 0, 0, 0, 0, 0, 0, 0, 0, 0]", fillcolor="#b1e539"] ;
516 -> 518 ;
519 [label="shucked_weight_g <= 0.171\nentropy = 1.614\nsamples = 12\nvalue = [0, 0, 0, 2, 2, 7, 1, 0, 0, 0, 0, 0, 0, 0\n0, 0, 0, 0, 0, 0, 0, 0, 0, 0, 0, 0, 0]", fillcolor="#c6f29c"] ;
495 -> 519 ;
520 [label="diam_mm <= 0.315\nentropy = 1.918\nsamples = 6\nvalue = [0, 0, 0, 2, 2, 1, 1, 0, 0, 0, 0, 0, 0, 0\n0, 0, 0, 0, 0, 0, 0, 0, 0, 0, 0, 0, 0]", fillcolor="#ffffff"] ;
519 -> 520 ;
521 [label="viscera_weight_g <= 0.073\nentropy = 1.0\nsamples = 2\nvalue = [0, 0, 0, 0, 0, 1, 1, 0, 0, 0, 0, 0, 0, 0\n0, 0, 0, 0, 0, 0, 0, 0, 0, 0, 0, 0, 0]", fillcolor="#ffffff"] ;
520 -> 521 ;
522 [label="entropy = 0.0\nsamples = 1\nvalue = [0, 0, 0, 0, 0, 0, 1, 0, 0, 0, 0, 0, 0, 0\n0, 0, 0, 0, 0, 0, 0, 0, 0, 0, 0, 0, 0]", fillcolor="#64e539"] ;
521 -> 522 ;
523 [label="entropy = 0.0\nsamples = 1\nvalue = [0, 0, 0, 0, 0, 1, 0, 0, 0, 0, 0, 0, 0, 0\n0, 0, 0, 0, 0, 0, 0, 0, 0, 0, 0, 0, 0]", fillcolor="#8ce539"] ;
521 -> 523 ;
524 [label="diam_mm <= 0.325\nentropy = 1.0\nsamples = 4\nvalue = [0, 0, 0, 2, 2, 0, 0, 0, 0, 0, 0, 0, 0, 0\n0, 0, 0, 0, 0, 0, 0, 0, 0, 0, 0, 0, 0]", fillcolor="#ffffff"] ;
520 -> 524 ;
525 [label="entropy = 0.0\nsamples = 1\nvalue = [0, 0, 0, 1, 0, 0, 0, 0, 0, 0, 0, 0, 0, 0\n0, 0, 0, 0, 0, 0, 0, 0, 0, 0, 0, 0, 0]", fillcolor="#d7e539"] ;
524 -> 525 ;
526 [label="viscera_weight_g <= 0.084\nentropy = 0.918\nsamples = 3\nvalue = [0, 0, 0, 1, 2, 0, 0, 0, 0, 0, 0, 0, 0, 0\n0, 0, 0, 0, 0, 0, 0, 0, 0, 0, 0, 0, 0]", fillcolor="#d8f29c"] ;
524 -> 526 ;
527 [label="entropy = 0.0\nsamples = 1\nvalue = [0, 0, 0, 1, 0, 0, 0, 0, 0, 0, 0, 0, 0, 0\n0, 0, 0, 0, 0, 0, 0, 0, 0, 0, 0, 0, 0]", fillcolor="#d7e539"] ;
526 -> 527 ;
528 [label="entropy = 0.0\nsamples = 2\nvalue = [0, 0, 0, 0, 2, 0, 0, 0, 0, 0, 0, 0, 0, 0\n0, 0, 0, 0, 0, 0, 0, 0, 0, 0, 0, 0, 0]", fillcolor="#b1e539"] ;
526 -> 528 ;
529 [label="entropy = 0.0\nsamples = 6\nvalue = [0, 0, 0, 0, 0, 6, 0, 0, 0, 0, 0, 0, 0, 0\n0, 0, 0, 0, 0, 0, 0, 0, 0, 0, 0, 0, 0]", fillcolor="#8ce539"] ;
519 -> 529 ;
530 [label="diam_mm <= 0.32\nentropy = 1.0\nsamples = 2\nvalue = [0, 0, 0, 0, 0, 0, 1, 0, 0, 0, 1, 0, 0, 0\n0, 0, 0, 0, 0, 0, 0, 0, 0, 0, 0, 0, 0]", fillcolor="#ffffff"] ;
494 -> 530 ;
531 [label="entropy = 0.0\nsamples = 1\nvalue = [0, 0, 0, 0, 0, 0, 1, 0, 0, 0, 0, 0, 0, 0\n0, 0, 0, 0, 0, 0, 0, 0, 0, 0, 0, 0, 0]", fillcolor="#64e539"] ;
530 -> 531 ;
532 [label="entropy = 0.0\nsamples = 1\nvalue = [0, 0, 0, 0, 0, 0, 0, 0, 0, 0, 1, 0, 0, 0\n0, 0, 0, 0, 0, 0, 0, 0, 0, 0, 0, 0, 0]", fillcolor="#39e5a6"] ;
530 -> 532 ;
533 [label="length_mm <= 0.433\nentropy = 2.115\nsamples = 69\nvalue = [0, 0, 0, 0, 17, 27, 14, 7, 0, 3, 0, 0, 1, 0\n0, 0, 0, 0, 0, 0, 0, 0, 0, 0, 0, 0, 0]", fillcolor="#e9fad9"] ;
493 -> 533 ;
534 [label="height_mm <= 0.107\nentropy = 1.857\nsamples = 22\nvalue = [0, 0, 0, 0, 5, 7, 8, 0, 0, 2, 0, 0, 0, 0\n0, 0, 0, 0, 0, 0, 0, 0, 0, 0, 0, 0, 0]", fillcolor="#f5fdf2"] ;
533 -> 534 ;
535 [label="viscera_weight_g <= 0.065\nentropy = 1.922\nsamples = 13\nvalue = [0, 0, 0, 0, 5, 3, 3, 0, 0, 2, 0, 0, 0, 0\n0, 0, 0, 0, 0, 0, 0, 0, 0, 0, 0, 0, 0]", fillcolor="#effad7"] ;
534 -> 535 ;
536 [label="entropy = 0.0\nsamples = 2\nvalue = [0, 0, 0, 0, 0, 0, 0, 0, 0, 2, 0, 0, 0, 0\n0, 0, 0, 0, 0, 0, 0, 0, 0, 0, 0, 0, 0]", fillcolor="#39e581"] ;
535 -> 536 ;
537 [label="shell_weight_g <= 0.105\nentropy = 1.539\nsamples = 11\nvalue = [0, 0, 0, 0, 5, 3, 3, 0, 0, 0, 0, 0, 0, 0\n0, 0, 0, 0, 0, 0, 0, 0, 0, 0, 0, 0, 0]", fillcolor="#ecf8ce"] ;
535 -> 537 ;
538 [label="entropy = 0.0\nsamples = 2\nvalue = [0, 0, 0, 0, 0, 0, 2, 0, 0, 0, 0, 0, 0, 0\n0, 0, 0, 0, 0, 0, 0, 0, 0, 0, 0, 0, 0]", fillcolor="#64e539"] ;
537 -> 538 ;
539 [label="shell_weight_g <= 0.115\nentropy = 1.352\nsamples = 9\nvalue = [0, 0, 0, 0, 5, 3, 1, 0, 0, 0, 0, 0, 0, 0\n0, 0, 0, 0, 0, 0, 0, 0, 0, 0, 0, 0, 0]", fillcolor="#e5f6bd"] ;
537 -> 539 ;
540 [label="whole_weight_g <= 0.365\nentropy = 0.954\nsamples = 8\nvalue = [0, 0, 0, 0, 5, 3, 0, 0, 0, 0, 0, 0, 0, 0\n0, 0, 0, 0, 0, 0, 0, 0, 0, 0, 0, 0, 0]", fillcolor="#e0f5b0"] ;
539 -> 540 ;
541 [label="entropy = 0.0\nsamples = 2\nvalue = [0, 0, 0, 0, 0, 2, 0, 0, 0, 0, 0, 0, 0, 0\n0, 0, 0, 0, 0, 0, 0, 0, 0, 0, 0, 0, 0]", fillcolor="#8ce539"] ;
540 -> 541 ;
542 [label="viscera_weight_g <= 0.096\nentropy = 0.65\nsamples = 6\nvalue = [0, 0, 0, 0, 5, 1, 0, 0, 0, 0, 0, 0, 0, 0\n0, 0, 0, 0, 0, 0, 0, 0, 0, 0, 0, 0, 0]", fillcolor="#c1ea61"] ;
540 -> 542 ;
543 [label="entropy = 0.0\nsamples = 5\nvalue = [0, 0, 0, 0, 5, 0, 0, 0, 0, 0, 0, 0, 0, 0\n0, 0, 0, 0, 0, 0, 0, 0, 0, 0, 0, 0, 0]", fillcolor="#b1e539"] ;
542 -> 543 ;
544 [label="entropy = 0.0\nsamples = 1\nvalue = [0, 0, 0, 0, 0, 1, 0, 0, 0, 0, 0, 0, 0, 0\n0, 0, 0, 0, 0, 0, 0, 0, 0, 0, 0, 0, 0]", fillcolor="#8ce539"] ;
542 -> 544 ;
545 [label="entropy = 0.0\nsamples = 1\nvalue = [0, 0, 0, 0, 0, 0, 1, 0, 0, 0, 0, 0, 0, 0\n0, 0, 0, 0, 0, 0, 0, 0, 0, 0, 0, 0, 0]", fillcolor="#64e539"] ;
539 -> 545 ;
546 [label="viscera_weight_g <= 0.089\nentropy = 0.991\nsamples = 9\nvalue = [0, 0, 0, 0, 0, 4, 5, 0, 0, 0, 0, 0, 0, 0\n0, 0, 0, 0, 0, 0, 0, 0, 0, 0, 0, 0, 0]", fillcolor="#e0fad7"] ;
534 -> 546 ;
547 [label="shell_weight_g <= 0.109\nentropy = 0.918\nsamples = 6\nvalue = [0, 0, 0, 0, 0, 4, 2, 0, 0, 0, 0, 0, 0, 0\n0, 0, 0, 0, 0, 0, 0, 0, 0, 0, 0, 0, 0]", fillcolor="#c6f29c"] ;
546 -> 547 ;
548 [label="whole_weight_g <= 0.358\nentropy = 0.722\nsamples = 5\nvalue = [0, 0, 0, 0, 0, 4, 1, 0, 0, 0, 0, 0, 0, 0\n0, 0, 0, 0, 0, 0, 0, 0, 0, 0, 0, 0, 0]", fillcolor="#a9ec6a"] ;
547 -> 548 ;
549 [label="entropy = 0.0\nsamples = 1\nvalue = [0, 0, 0, 0, 0, 0, 1, 0, 0, 0, 0, 0, 0, 0\n0, 0, 0, 0, 0, 0, 0, 0, 0, 0, 0, 0, 0]", fillcolor="#64e539"] ;
548 -> 549 ;
550 [label="entropy = 0.0\nsamples = 4\nvalue = [0, 0, 0, 0, 0, 4, 0, 0, 0, 0, 0, 0, 0, 0\n0, 0, 0, 0, 0, 0, 0, 0, 0, 0, 0, 0, 0]", fillcolor="#8ce539"] ;
548 -> 550 ;
551 [label="entropy = 0.0\nsamples = 1\nvalue = [0, 0, 0, 0, 0, 0, 1, 0, 0, 0, 0, 0, 0, 0\n0, 0, 0, 0, 0, 0, 0, 0, 0, 0, 0, 0, 0]", fillcolor="#64e539"] ;
547 -> 551 ;
